#Parameter# /vanilla-lstm-builder/_0 {80,20} 25601 ZERO_GRAD
+1.67432034e+00 -3.75676066e-01 +5.17724216e-01 -6.92834377e+00 -3.97842860e+00 -3.78964782e+00 +1.94708991e+00 +3.35721779e+00 +8.52125049e-01 -2.91471767e+00 +3.18082857e+00 -5.55829823e-01 -2.21994138e+00 -9.83383417e-01 -6.97893238e+00 +1.40184224e+00 +1.89515448e+00 +2.63758326e+00 -5.23388505e-01 -3.27158540e-01 +2.68281400e-01 +2.25544667e+00 -1.74878687e-01 +1.18576288e+00 +4.31896496e+00 -3.87642169e+00 -3.94297981e+00 -7.83058643e+00 +2.10269189e+00 -8.89555156e-01 +1.33850682e+00 -4.14331055e+00 -4.74632311e+00 +8.56865883e-01 +1.26724994e+00 +1.13504481e+00 +1.41628528e+00 -2.09322071e+00 -9.79925823e+00 +7.62438118e-01 +6.38134766e+00 +1.56585860e+00 -2.01374125e+00 -4.33285522e+00 +4.44294596e+00 +8.65462005e-01 -3.53575349e-01 +3.43791938e+00 -5.23418844e-01 +2.37530756e+00 -1.14628470e+00 -9.64625895e-01 +1.40547252e+00 +1.90680623e+00 +1.80348670e+00 +3.17806959e+00 -7.89838839e+00 +4.40635824e+00 -8.73529673e-01 +5.15993357e-01 -3.38165665e+00 -1.65259972e-01 -2.50299954e+00 +5.27229118e+00 -5.64885283e+00 -5.45615339e+00 +2.92206073e+00 +2.33035994e+00 -3.82236385e+00 +4.41243219e+00 -1.41252470e+00 -4.84169102e+00 +1.69818893e-01 -3.79810095e+00 -2.87340188e+00 -4.25151616e-01 -5.15056992e+00 -9.20870721e-01 +2.58343124e+00 -3.93356586e+00 +2.11408448e+00 -2.61739755e+00 +1.87516892e+00 -2.60343075e+00 -9.73143291e+00 -1.55685890e+00 -5.51354742e+00 -3.51360410e-01 +7.10401058e-01 -3.19167042e+00 -5.87386429e-01 -1.76358569e+00 +4.31662750e+00 +3.05821228e+00 +1.01324546e+00 +1.65659797e+00 -3.51375580e+00 -1.52326274e+00 +7.18382075e-02 -1.73585045e+00 +9.90185022e-01 +2.34691286e+00 +1.87809598e+00 +8.58240604e-01 -2.17037559e+00 +2.78372741e+00 -1.53967500e+00 -1.45405328e+00 -5.07324457e-01 -2.76962256e+00 -3.02891636e+00 +2.53879786e+00 -2.45306563e+00 -1.24032569e+00 +2.48209715e+00 -5.80914497e-01 -4.83170897e-01 -6.64389515e+00 -2.32706642e+00 +5.18071365e+00 +2.12158394e+00 +4.63922262e+00 -3.74321550e-01 +1.35659826e+00 -3.14792490e+00 +3.07700157e-01 -3.38443065e+00 +3.02915525e+00 +3.36581707e-01 -2.74060875e-01 +5.92388344e+00 -8.54107678e-01 -6.28847075e+00 +5.64855766e+00 -3.19693017e+00 +2.77615976e+00 +1.15425611e+00 +2.54254985e+00 -3.80933666e+00 -5.42294645e+00 +6.01809931e+00 +1.90065825e+00 +5.81513453e+00 +1.33438098e+00 -1.31429636e+00 -1.28473377e+01 -2.26637626e+00 +1.21268666e+00 -6.23949349e-01 +5.99571133e+00 +8.14004600e-01 -5.08149767e+00 -4.49894333e+00 +1.15066648e+00 -9.07018930e-02 +2.62489772e+00 -7.26463079e+00 +6.95350528e-01 +2.97654581e+00 +1.32111645e+00 -1.61696923e+00 +6.25865638e-01 +2.20604873e+00 -2.76249790e+00 -8.83748627e+00 +3.79106569e+00 -1.96998656e+00 -1.05256297e-01 -2.53758883e+00 +5.04497623e+00 +2.81388307e+00 -1.92377135e-01 -3.87648797e+00 -1.48131335e+00 -2.32758117e+00 -9.26628150e-03 +4.82071400e+00 +2.68842292e+00 -1.77807987e-01 -7.44268656e+00 -6.67442083e+00 -1.31158197e+00 -1.74529362e+00 +1.02788343e+01 -1.23879266e+00 +2.31466246e+00 -8.40676665e-01 +1.14255023e+00 +3.23256707e+00 +5.24815464e+00 +2.96456313e+00 -1.18045759e+00 +3.90409160e+00 -5.63486147e+00 -2.47809458e+00 +1.66554558e+00 +8.32665861e-01 -7.25094080e-01 +9.89399052e+00 -1.72342968e+00 +7.99002707e-01 +1.30724859e+00 -6.84485769e+00 +2.51488638e+00 +1.44544530e+00 +3.39578295e+00 -1.47013998e+00 +6.43804371e-02 -3.64318061e+00 -6.13084030e+00 +8.79350305e-01 -1.68176866e+00 +2.34938622e+00 +2.00899243e+00 +3.74760199e+00 +1.06729674e+00 +1.17849433e+00 +5.78604507e+00 +2.09532678e-01 -3.42727542e+00 +8.60870552e+00 +2.96172231e-01 -3.65004349e+00 -7.12600994e+00 +3.00638735e-01 -5.10561323e+00 +2.67465878e+00 -5.04056871e-01 -6.77892971e+00 +5.02009535e+00 -2.03078762e-02 +4.63437891e+00 -3.36801577e+00 -3.37352657e+00 -6.36086082e+00 +7.49727190e-01 +4.71751404e+00 -6.37419045e-01 +3.81461048e+00 +3.59008670e+00 -2.45327085e-01 +3.17836595e+00 -1.83633757e+00 -1.12009382e+00 -3.77501726e-01 -2.56389141e+00 -1.99819601e+00 -7.35258675e+00 -1.71204090e+00 -3.22462487e+00 -7.65368176e+00 -2.93402171e+00 -2.83412218e+00 +3.26175618e+00 -5.79211330e+00 -7.85163450e+00 +3.27513242e+00 -1.93134809e+00 +7.15621710e-01 -3.39341700e-01 +2.51333690e+00 +6.72442496e-01 -8.30963790e-01 -3.41492558e+00 +2.75042391e+00 +1.09593754e+01 -4.28484106e+00 -1.99141705e+00 -9.53370953e+00 -5.84228039e+00 +2.73440719e+00 -2.26670027e+00 +5.05601358e+00 +5.56095779e-01 +2.13971806e+00 -9.62214917e-02 -1.88775122e+00 -8.80907297e-01 -1.59397256e+00 -9.33879733e-01 -4.81119491e-02 +1.75091481e+00 +1.10473835e+00 -3.06398058e+00 +1.54314506e+00 +4.35830116e+00 +2.24094629e+00 -5.81012964e+00 -2.56075215e+00 -2.72095537e+00 -1.25507855e+00 -3.02500749e+00 -5.49180889e+00 -1.56191146e+00 +2.20967746e+00 -1.16940629e+00 -5.80000734e+00 +1.90986896e+00 +2.02302146e+00 +1.41855621e+00 -3.61937666e+00 -5.91529489e-01 +3.55969858e+00 -1.44753563e+00 +1.88592088e+00 +3.96552014e+00 -1.41534853e+00 +1.11800539e+00 -1.95698690e+00 +6.29982173e-01 -1.64334285e+00 -1.19753957e+00 -5.89790487e+00 +1.07254958e+00 -1.21515715e+00 +3.57254416e-01 -5.69896269e+00 +2.16242284e-01 -2.39858866e+00 -1.23617721e+00 +1.26189101e+00 -1.75933635e+00 +6.96318293e+00 -1.59516609e+00 -8.80165482e+00 +4.09996033e+00 -3.34534860e+00 -6.19324780e+00 -3.01746893e+00 +6.60294151e+00 -3.57659173e+00 +2.47181153e+00 -4.89124203e+00 -1.07588601e+00 -5.29952288e+00 +1.87265705e-02 +9.09335673e-01 -3.64830446e+00 +7.27473402e+00 -2.61240315e+00 +7.41692686e+00 -4.19914484e+00 +4.80045652e+00 -3.53944540e+00 -3.92724800e+00 +3.18036509e+00 +4.39581394e+00 +6.23044252e-01 +7.53980994e-01 -5.67639160e+00 +4.51229811e+00 -4.10664415e+00 +7.97354841e+00 -3.91198897e+00 -4.84288597e+00 +4.45754737e-01 -4.71143103e+00 +3.77771449e+00 +2.13994527e+00 -2.70259404e+00 -1.45052874e+00 +1.13008237e+00 -2.35896611e+00 +8.84057343e-01 -2.71877646e+00 +4.14412260e-01 -2.47306108e+00 +2.20997006e-01 -5.16769111e-01 -2.46194005e+00 -1.15893900e+00 +1.37405837e+00 -1.59890485e+00 -2.38829517e+00 -2.61174369e+00 +3.87460661e+00 -2.95399690e+00 -3.92662215e+00 -4.41091031e-01 -5.04835367e+00 +6.92697859e+00 +1.84315288e+00 -4.11782694e+00 +2.36956811e+00 -2.74471998e+00 -4.95213938e+00 -2.32170296e+00 -1.98372030e+00 +5.43988800e+00 +4.28995895e+00 +4.06028891e+00 +6.60279179e+00 +6.92278087e-01 -3.75915837e+00 +6.31783152e+00 +8.57324183e-01 -3.76498508e+00 -2.83310771e+00 +4.87439108e+00 -5.96976519e+00 -1.88165039e-01 -2.28326297e+00 -9.26319659e-01 +1.20907462e+00 -8.72982883e+00 +1.07820022e+00 +3.70558596e+00 +3.13110733e+00 -3.09994125e+00 +7.97622061e+00 -7.31448770e-01 -6.26352930e+00 +1.01370764e+00 +2.27351952e+00 +7.49153519e+00 -3.91720200e+00 +4.47157711e-01 +5.80569029e+00 -3.50610900e+00 +6.64130986e-01 -3.90016198e+00 +7.28037262e+00 -2.43479037e+00 +6.08152771e+00 +1.29179704e+00 -1.75294268e+00 +3.69139165e-01 -1.91626942e+00 -1.85538399e+00 -8.76397896e+00 -1.56635833e+00 +1.45298874e+00 -4.78359795e+00 -1.12888467e+00 +9.92715120e-01 +2.91224885e+00 +8.66078854e+00 -5.15240073e-01 -4.68242979e+00 +5.68396282e+00 +2.84978676e+00 +2.26600915e-01 +8.98005390e+00 -5.42925239e-01 +6.88998923e-02 +2.20184374e+00 +9.62238598e+00 -3.59276652e+00 -1.05748546e+00 -7.02328157e+00 +1.20931470e+00 -1.01790524e+00 +2.06055689e+00 +3.03476191e+00 +4.04872894e+00 +1.89623833e+00 +3.72314930e+00 +2.31443000e+00 +6.34726822e-01 +4.94516945e+00 +2.66436785e-01 +2.77434731e+00 +8.97754383e+00 -1.22102427e+00 -3.81915808e+00 -7.69979477e+00 -9.46171522e-01 +7.20554972e+00 -1.49766493e+00 -5.50909901e+00 +6.98337841e+00 +4.25143194e+00 +3.05737662e+00 -4.10183239e+00 -1.96063483e+00 +5.16856384e+00 +1.21951950e+00 +3.34183598e+00 +1.30066836e+00 +2.28842878e+00 -1.24991012e+00 -1.66608512e+00 -5.34844160e+00 -7.01483488e-01 +9.95301366e-01 -1.29276478e+00 +1.20989680e+00 -1.32826996e+00 +7.89511800e-01 -1.13595235e+00 -5.04018211e+00 +1.51958477e+00 +1.05097461e+00 +2.19686627e+00 -1.39928520e+00 +2.72123851e-02 -2.57532310e+00 -1.71573174e+00 -4.40464258e+00 +5.12503195e+00 +3.25820208e+00 +3.77518982e-01 +5.11992025e+00 +1.85422695e+00 +3.43767142e+00 +3.83660436e+00 +6.76089287e-01 +2.57554829e-01 -1.95704103e+00 -4.06735802e+00 -6.92601442e+00 +8.99664164e-02 +8.00844288e+00 -4.26657438e+00 -4.38555574e+00 +2.39901710e+00 -9.59649181e+00 +3.87762618e+00 +3.78444171e+00 +5.27258062e+00 +2.13007197e-01 -5.88304140e-02 +7.73940372e+00 -1.14152205e+00 -2.37558198e+00 -2.57838219e-01 +2.11132717e+00 -1.88637412e+00 -2.44330263e+00 +2.25402474e+00 -5.83590937e+00 -2.46064830e+00 -7.19827604e+00 -3.03242588e+00 -9.21655834e-01 +4.68169183e-01 -5.34289169e+00 +3.71974206e+00 +1.32309413e+00 +1.15984166e+00 +7.66128778e+00 +1.49459815e+00 +4.83651352e+00 -8.36717486e-01 +7.66252041e-01 +3.75445485e-01 -1.02121270e+00 +4.81243324e+00 +5.24762201e+00 +6.39395189e+00 +4.96738434e-01 +6.49527645e+00 -1.55615056e+00 -1.13260627e+00 -2.65562916e+00 -6.11659527e+00 -3.77241325e+00 -2.12798476e+00 +2.11323404e+00 +1.47749889e+00 -1.16854906e+00 -3.35385847e+00 +3.98234040e-01 -2.64183974e+00 -3.29583049e+00 -6.62014437e+00 -9.53161180e-01 +6.52823782e+00 -1.11424506e+00 +4.59718418e+00 +5.57159901e+00 +3.86828971e+00 +1.37936878e+00 +6.77889168e-01 -3.11906457e-01 +4.03598690e+00 -1.12905622e+00 +1.55064785e+00 +5.46093655e+00 +3.51722360e+00 +1.32727385e-01 +9.77107406e-01 -2.87259340e+00 -3.45905805e+00 -4.22796583e+00 +2.23124051e+00 +7.78188276e+00 +1.46502054e+00 -1.19409728e+00 -1.85582006e+00 -2.92636275e+00 -4.97783279e+00 +2.62206411e+00 -1.60505402e+00 -4.50368214e+00 -5.73300779e-01 -4.49993998e-01 -9.61761296e-01 +6.74576950e+00 -7.51166201e+00 -4.11598325e-01 -3.08901334e+00 -5.14002132e+00 -1.42535055e+00 +3.81679368e+00 -4.00157785e+00 -3.27726930e-01 -4.65457153e+00 -3.30852938e+00 -1.32872856e+00 +2.54457951e+00 +1.21133935e+00 +9.05850470e-01 +8.06134224e+00 +4.54850101e+00 -7.33653879e+00 +2.22624198e-01 -4.54390907e+00 +1.29661715e+00 +3.16644573e+00 +1.25318182e+00 +3.03271341e+00 -2.57416177e+00 -5.35744524e+00 +1.14024878e+01 -5.32639694e+00 -6.62587702e-01 +3.06382799e+00 +2.27100253e+00 +5.69527960e+00 +5.10043812e+00 +1.40309930e+00 +1.40560544e+00 -1.16080141e+00 +1.78281796e+00 +1.06354617e-01 -3.67574286e+00 -3.81844091e+00 -3.48943400e+00 -5.69264698e+00 +4.18845606e+00 +5.19953251e-01 +2.92911291e+00 +7.19254780e+00 +5.59619999e+00 -5.18871355e+00 +4.82998466e+00 +3.51710868e+00 +2.79424429e-01 +3.20706153e+00 -1.08827364e+00 +3.88828993e+00 +1.79739654e+00 +9.59394932e+00 +2.60768104e+00 +4.17150497e+00 -1.67092025e+00 +1.66566575e+00 -6.23657048e-01 -1.53112233e+00 -2.07634377e+00 +5.25398731e+00 +6.51464462e+00 +4.23942137e+00 +1.92088664e+00 -8.02226925e+00 +4.74059820e+00 +4.07619238e+00 +1.90033996e+00 +8.33579078e-02 +3.78485584e+00 -3.40319777e+00 +5.20339012e-01 +4.63898087e+00 -2.10232878e+00 -5.94586992e+00 +4.48804235e+00 -1.13652480e+00 -4.14604425e+00 +2.64603353e+00 -6.66962028e-01 -2.88358688e+00 -4.59774542e+00 +1.93720019e+00 -5.76829815e+00 +1.51522413e-01 +8.98870850e+00 -1.00551605e+00 -2.53233814e+00 -2.91771722e+00 -1.19231451e+00 +4.96866792e-01 +1.36063492e+00 +3.00386405e+00 -1.75886178e+00 -3.47440171e+00 +6.59646559e+00 +7.64399171e-01 +1.31925869e+00 -2.67580009e+00 -1.09063756e+00 -2.97475696e+00 +9.18106937e+00 +1.20564878e+00 -2.96960998e+00 -8.39570522e+00 -2.37555432e+00 -4.68467861e-01 +8.93924141e+00 +7.86071360e-01 -8.36146927e+00 +8.99886131e-01 +2.30567455e+00 +2.12430573e+00 +5.89918518e+00 -4.29712677e+00 -3.38221312e+00 -1.34446120e+00 -6.24708652e+00 -3.87126923e+00 +4.39187586e-02 +6.10439062e-01 -2.56766486e+00 +8.05704403e+00 +4.01544571e+00 -5.73641241e-01 +7.83587899e-03 +2.43590951e+00 +2.24820542e+00 +7.85230207e+00 -1.87845755e+00 -7.43901014e+00 +2.52305937e+00 -6.41533232e+00 -2.94107652e+00 +2.57669711e+00 -3.92145801e+00 +9.44613516e-01 +2.24236941e+00 +3.05485755e-01 +1.15594745e+00 +2.89571571e+00 +5.76529443e-01 +1.55046833e+00 -7.13661385e+00 +3.95041895e+00 +1.07137072e+00 +3.66246939e+00 +4.73261023e+00 +3.09969497e+00 +7.94749928e+00 +8.75411391e-01 -2.22837377e+00 +7.37685978e-01 -3.78647709e+00 -2.96611762e+00 -3.66439152e+00 -2.83471107e+00 -2.52875924e-01 +7.22188520e+00 -6.18998671e+00 -1.38408995e+00 -2.68415904e+00 +5.00177145e+00 +1.80938244e+00 -1.28882408e+00 -5.53547192e+00 +1.72710943e+00 +5.57657003e-01 +3.63274741e+00 -3.19158268e+00 -7.18993127e-01 -2.01182938e+00 -8.94794273e+00 +6.43676460e-01 +1.96284294e+00 +9.82816410e+00 -7.65273809e+00 +3.54997945e+00 -5.70830965e+00 -2.76168036e+00 -3.06891036e+00 -1.26304972e+00 +4.17214060e+00 -3.14500499e+00 +5.63469028e+00 -7.60495663e-01 +3.27288938e+00 -1.32528722e+00 +2.00524879e+00 -5.10564661e+00 +2.33741856e+00 -3.06459594e+00 +5.25013924e+00 -1.63897324e+00 +7.81692386e-01 -2.66303945e+00 +1.00964963e+00 -1.14613879e+00 +1.05396914e+00 +2.47502494e+00 -6.12315476e-01 +9.26082492e-01 -2.19169632e-01 +6.71370745e+00 +1.80500662e+00 -4.60172558e+00 -3.28628111e+00 +1.57033122e+00 -9.86952245e-01 -7.95374298e+00 -8.02967739e+00 -5.77788639e+00 -4.35519505e+00 -6.06411791e+00 -1.72149494e-01 +6.69570386e-01 -4.21095085e+00 +4.31486988e+00 +1.06789179e+01 +4.97458267e+00 -1.70111930e+00 +2.89483666e+00 -7.14292467e-01 +1.08419943e+01 +5.42117596e-01 -6.31817341e+00 -3.12127924e+00 +5.04655600e+00 +1.10053349e+01 +1.70187443e-01 +7.09979534e-01 -7.45700169e+00 -6.41138649e+00 +2.81863427e+00 -2.88272691e+00 -1.47592700e+00 -6.98339939e+00 -8.28542900e+00 +7.13545990e+00 -2.60868716e+00 +4.29862452e+00 +2.33646631e-01 +2.54617882e+00 +9.50688004e-01 +3.54400253e+00 -4.95794296e+00 +5.59503984e+00 +3.96806288e+00 +3.53826702e-01 +3.03245878e+00 -9.25899744e-01 -8.20641994e+00 +3.53245711e+00 -1.37375569e+00 -9.09984529e-01 -6.24841070e+00 -3.71222425e+00 -1.98210800e+00 +4.06103182e+00 -5.63201714e+00 +3.19927382e+00 -4.03894961e-01 +3.95551825e+00 -2.74385142e+00 +1.69527173e+00 +1.11328757e+00 -1.73138726e+00 -3.18044376e+00 +4.21430492e+00 -4.04745531e+00 -3.89731574e+00 -3.00701594e+00 +6.26025915e-01 +5.56840658e-01 -1.07196438e+00 -8.40702713e-01 +1.10259140e+00 +4.70713109e-01 +9.07202899e-01 +1.98678124e+00 +6.27399254e+00 +1.87831306e+00 +8.41162801e-01 -3.41042757e+00 +1.67921042e+00 -1.69938052e+00 -8.87177050e-01 +1.79843634e-01 -6.22410536e+00 -4.28433514e+00 -2.40551877e+00 -4.51850367e+00 +2.85404491e+00 -5.77861357e+00 +8.49416494e-01 -5.39201355e+00 -2.68411469e+00 -4.49222898e+00 -5.71528435e+00 +4.51127958e+00 +2.21349001e+00 +3.41111541e+00 -1.49244785e-01 -3.80375218e+00 +3.20850039e+00 -3.88654518e+00 +2.55629015e+00 -2.82025158e-01 +6.72298551e-01 +3.28303003e+00 -3.62219620e+00 -1.54768693e+00 +3.18142438e+00 -2.59320021e+00 +1.76986551e+00 +2.11945319e+00 -4.02161312e+00 +6.25598967e-01 +8.84195149e-01 +1.62662482e+00 -1.60553575e+00 -6.42271698e-01 +1.26087034e+00 -5.08532286e-01 +3.00753450e+00 -3.32106996e+00 -2.45912492e-01 -8.11214328e-01 +3.55934310e+00 -3.62580943e+00 -2.94629908e+00 -6.69812346e+00 +6.84725046e-01 -2.32628226e+00 -1.24358855e-01 -5.54392385e+00 -1.11651266e+00 -8.59055161e-01 -2.21835661e+00 +4.54382420e+00 +1.14732245e-02 -2.55916142e+00 -5.51918983e+00 -2.52338958e+00 -7.15964556e-01 -2.10348868e+00 +4.26149845e+00 +6.97449923e-01 -2.78536892e+00 -1.15224135e+00 +7.71163464e-01 -1.11805475e+00 +1.17637455e+00 -2.40973544e+00 -8.39588106e-01 -6.23179674e-01 +3.93674779e+00 -7.60250166e-02 -8.61182332e-01 +4.44736338e+00 -1.74442184e+00 +7.81605244e-01 +5.32694340e+00 +6.93746471e+00 -4.23449636e-01 +4.02730417e+00 +4.64465737e-01 +5.21122217e-01 +3.37791991e+00 +2.04434323e+00 +4.20744562e+00 -1.70597553e+00 +4.62961245e+00 -2.34835482e+00 +2.30564308e+00 +1.44044566e+00 +2.19056535e+00 -2.96293139e+00 +3.90639806e+00 +6.51974797e-01 +3.28507447e+00 -2.38305235e+00 -4.01168394e+00 +8.04457092e+00 +5.38549781e-01 +1.23376358e+00 +5.54221630e-01 -2.46367526e+00 +1.33793325e+01 +1.04991465e+01 +9.36689496e-01 -8.99750710e+00 +1.76126972e-01 +2.58707976e+00 +3.64493132e-01 +9.56733990e+00 -1.17719486e-01 -1.01246130e+00 -1.87382603e+00 -4.01661730e+00 +4.82691556e-01 +2.77493811e+00 +2.29079866e+00 +2.27164650e+00 +4.24366665e+00 +5.86084306e-01 -1.71858490e-01 +2.62760758e+00 +3.04671597e+00 -6.92160940e+00 +9.24348116e-01 -1.07996249e+00 +2.32073069e+00 +3.32431078e+00 -3.40652323e+00 -9.45303559e-01 +8.15240085e-01 +4.72423363e+00 -2.77989721e+00 -1.10101199e+00 -4.67638433e-01 +2.41083288e+00 -4.82077169e+00 +5.36784112e-01 +6.47877073e+00 +2.83155990e+00 +4.29093182e-01 -5.81299104e-02 +2.41830325e+00 -5.70514584e+00 -2.34818792e+00 -1.75270751e-01 +5.42010963e-02 +8.52155304e+00 -1.06944561e+00 -1.58999538e+00 +2.02853993e-01 -4.56468439e+00 -9.71329808e-01 +1.07005432e-01 +4.60815716e+00 -4.65148479e-01 +2.20348880e-01 +6.87688732e+00 +1.60260081e+00 +1.76742345e-01 -3.10078001e+00 +2.56182528e+00 -1.44825494e+00 -4.40234232e+00 -8.00516844e-01 -1.09876490e+00 +4.40580279e-01 +2.33756089e+00 -2.95068002e+00 +2.17213750e+00 -2.05675197e+00 -8.93411160e-01 +8.90673447e+00 +2.97212843e-02 -7.25669205e-01 -5.42252159e+00 +1.07892714e+01 -3.54187816e-01 +5.20590878e+00 +3.97377133e+00 -3.65966487e+00 -5.54472685e+00 +1.48441613e+00 -4.03877974e+00 -1.99921203e+00 -3.98946095e+00 -4.07865435e-01 +2.74081182e+00 -3.69168687e+00 +4.93047285e+00 +3.07565355e+00 +6.91867232e-01 -2.43215966e+00 +1.88274419e+00 +3.14387584e+00 +9.27819833e-02 +2.29059100e+00 +2.49054074e+00 +2.18035245e+00 -3.83580804e+00 -1.67839146e+00 +7.45559275e-01 +1.25072038e+00 -2.67449903e+00 +2.12617850e+00 +1.69162571e+00 -7.98312616e+00 +1.43644381e+00 +2.99063849e+00 +3.52038741e+00 +3.37624645e+00 +2.18610120e+00 +2.43704939e+00 +1.68206191e+00 +6.02500677e-01 -2.10615921e+00 +6.94733024e-01 -1.05107212e+00 +9.97842014e-01 +2.40778708e+00 -2.39983797e+00 -4.59801483e+00 -4.26758432e+00 -2.05529833e+00 +2.59182334e+00 +4.84739351e+00 -2.07597017e+00 +5.09160471e+00 -2.41969776e+00 +6.16932106e+00 +3.83145642e+00 +4.52647591e+00 +1.52798563e-01 -4.17641592e+00 +9.96440530e-01 -9.80094135e-01 -6.77925169e-01 +7.04527187e+00 +2.56764841e+00 -2.62842560e+00 +3.89854598e+00 +3.52253056e+00 -4.56098652e+00 +8.37059879e+00 +3.00126624e+00 +3.29005599e+00 +4.18793964e+00 +5.80704737e+00 -6.07650566e+00 -1.89618431e-02 -4.29394722e+00 -2.96093726e+00 -2.83105993e+00 +2.57205391e+00 +8.35131645e+00 +4.99722099e+00 +4.46703196e+00 -1.69606996e+00 +4.07945335e-01 -7.73144662e-01 -5.70530605e+00 +3.31347013e+00 +1.03419825e-01 -6.48243046e+00 -3.40461707e+00 +2.57787585e+00 -1.95680857e+00 -5.18469453e-01 +1.08091936e-01 -2.71526432e+00 +4.20629978e+00 -6.83236647e+00 +7.34686375e-01 +4.33366728e+00 -1.92818093e+00 -1.70505393e+00 -2.78981495e+00 +1.17856613e-03 -1.45807528e+00 +7.36171007e-01 -1.33746850e+00 -1.46986055e+00 +3.50090265e+00 -4.54883957e+00 +1.35061586e+00 -3.97912526e+00 -2.87348413e+00 -1.05867462e+01 +2.13171959e+00 +1.22162294e+00 +5.33499777e-01 -3.36076927e+00 +6.98967361e+00 -4.26231623e+00 -5.66168499e+00 -3.96034861e+00 +6.45342350e+00 +2.48240066e+00 +3.26310420e+00 +4.21378040e+00 +1.75754380e+00 +2.43524361e+00 -2.95253325e+00 -2.68860817e+00 -3.49934363e+00 +5.78817558e+00 -2.22718668e+00 -1.19028819e+00 -2.59505987e+00 -8.09192562e+00 +2.38003540e+00 -4.37935680e-01 -3.69071293e+00 +2.27056932e+00 -2.90459061e+00 -2.82295674e-01 +4.11552906e+00 +2.72862482e+00 +2.89550567e+00 -1.12509155e+00 -9.22380447e-01 +2.80174375e+00 +1.35491877e+01 -3.40836465e-01 +2.26848650e+00 -2.33991122e+00 +9.61342514e-01 -2.78324175e+00 -3.34637308e+00 -1.41215575e+00 +8.59290540e-01 +4.42433500e+00 +1.18115509e+00 +3.36697310e-01 -7.30520904e-01 -2.43226901e-01 -6.13315582e+00 -1.88543010e+00 +3.22461152e+00 +3.98238921e+00 +8.12678695e-01 +4.64746666e+00 -7.47069216e+00 -5.28737211e+00 -2.59246707e+00 -7.27693415e+00 -2.01979899e+00 +3.22774076e+00 +1.14983678e+00 -4.61097240e+00 +2.99163651e+00 +2.06661510e+00 -1.00014699e+00 -3.72966719e+00 +2.87071157e+00 +6.22563791e+00 -7.00753033e-01 -1.49976766e+00 +5.16816044e+00 +5.49905062e+00 -2.46996999e+00 -5.46240173e-02 +2.39687383e-01 +1.15361094e+00 +6.79984093e-01 +4.79506683e+00 -1.49522090e+00 +6.17155671e-01 -2.45217037e+00 -1.86902225e+00 -1.54114699e+00 +3.04039860e+00 +3.49806905e+00 +7.03442860e+00 +4.06966591e+00 +3.29430723e+00 +1.00279808e+00 +9.54075575e-01 -3.24255919e+00 +1.79049599e+00 +5.47040462e-01 -8.59932721e-01 -2.12012577e+00 +4.95889854e+00 -6.52044392e+00 -4.01737261e+00 -3.56589258e-01 -1.00647128e+00 +3.54533792e+00 +3.06969762e+00 +3.92099404e+00 -7.43703067e-01 +5.07614279e+00 +2.35864019e+00 -4.26038980e+00 +4.54464865e+00 +2.95880866e+00 +3.93118930e+00 -1.69714737e+00 +3.39396548e+00 -1.08354592e+00 -2.19714952e+00 -2.22051811e+00 +6.77666545e-01 +5.77083921e+00 -2.76950431e+00 +3.00135589e+00 -1.69755295e-01 -1.81732401e-01 +4.85076141e+00 -5.13020813e-01 -2.21505332e+00 +5.25101244e-01 -9.44443405e-01 -1.98798347e+00 -3.30299878e+00 -2.59383619e-01 +6.39637518e+00 -6.59059811e+00 +5.15089750e+00 +3.94028854e+00 -1.80217886e+00 +5.75482941e+00 -8.42918205e+00 -2.26471400e+00 +6.76355720e-01 -2.51014137e+00 +3.24068260e+00 +2.18849850e+00 +3.39792800e+00 +3.15531492e+00 -5.19497299e+00 +7.47814798e+00 -3.22848487e+00 -8.33275414e+00 +1.01376066e+01 -1.34436059e+00 -1.23879004e+00 -5.92161119e-01 -3.36283875e+00 +1.20666850e+00 -1.35715246e-01 -6.92665625e+00 -4.71990728e+00 +2.57193542e+00 +3.79678816e-01 -2.68251151e-01 -3.18456292e+00 +1.37988597e-01 -2.19553638e+00 +4.83294815e-01 -2.41036105e+00 -4.24396873e-01 +3.94575572e+00 -4.44425917e+00 -5.04204416e+00 +4.73248625e+00 -1.03543186e+00 +7.64682055e+00 -1.72612980e-01 -1.83921969e+00 -2.33932778e-01 -6.52692461e+00 +1.01879907e+00 -1.11673212e+00 +2.38648510e+00 -2.31145954e+00 +5.24030876e+00 +9.35812388e-03 +6.92514002e-01 -2.53351855e+00 -5.93650389e+00 +3.39839673e+00 -7.45246112e-01 +5.21937752e+00 -4.65144062e+00 +9.68312204e-01 +8.85927141e-01 -5.35510480e-01 -8.21946716e+00 -6.30078077e+00 +5.14072657e-01 +2.00827360e+00 -3.53890204e+00 -4.44738939e-02 -8.82339239e-01 -1.26030457e+00 -3.53194404e+00 -3.43634534e+00 -7.65054703e+00 +2.01341939e+00 +3.98457050e+00 -1.51998138e+00 +5.82514858e+00 +8.73319817e+00 -6.72704124e+00 +4.57887077e+00 +1.22647915e+01 +4.84306383e+00 -2.78750777e+00 +5.08032894e+00 -2.00816989e+00 +8.19722748e+00 +2.07840943e+00 +5.26369810e+00 -7.58067369e+00 -2.63785410e+00 +1.06223812e+01 -4.70371866e+00 +1.84623373e+00 -2.39933634e+00 -8.08503509e-01 +8.97228050e+00 -1.42718971e+00 +4.14266968e+00 -7.16262937e-01 +7.55819654e+00 +1.82602882e+00 +8.09294891e+00 -2.43318129e+00 -4.20783854e+00 +1.69726837e+00 +3.54253674e+00 +1.12921429e+00 -2.29668498e+00 -2.96459746e+00 -5.48725510e+00 -3.71096916e-02 -4.47044611e+00 +6.19196320e+00 -8.38757336e-01 +1.96890461e+00 +4.63417006e+00 +4.90521669e+00 +5.49335837e-01 +5.69023418e+00 +8.21535230e-01 +4.31551027e+00 +2.34629726e+00 -2.45444679e+00 -1.31146777e+00 -2.11107865e-01 +7.90029049e-01 -2.55172205e+00 +4.78954744e+00 -2.82988429e+00 -4.47699165e+00 +3.49857330e+00 +7.72589505e-01 +2.14748573e+00 +1.99793983e+00 +9.16860700e-01 -2.46784836e-01 -3.25866413e+00 +3.23496842e+00 +2.28388166e+00 -5.20326185e+00 -3.30263042e+00 -4.98645163e+00 -5.98068178e-01 -2.70509744e+00 -9.87080991e-01 -4.06914854e+00 +6.49350834e+00 +2.07068276e+00 +1.87708914e+00 -3.06594253e+00 +6.61275923e-01 -2.04537654e+00 +2.63442278e+00 -4.00627422e+00 +1.64013219e+00 -1.23962867e+00 +5.40929222e+00 +1.13609719e+00 +6.52391052e+00 -3.65432978e+00 +2.03567457e+00 +1.25966034e+01 -3.52721047e+00 +6.74964857e+00 +3.00339890e+00 +2.05290064e-01 -8.77836764e-01 +3.60994548e-01 -3.99905157e+00 -1.09444368e+00 -2.96595263e+00 +6.06884050e+00 -4.19698358e-01 -3.60415053e+00 +6.25226557e-01 +2.91687608e+00 +2.72691399e-01 +4.85335732e+00 -5.33484316e+00 +1.51324606e+00 +1.06653416e+00 +8.62640619e-01 +5.82734585e-01 -1.61550295e+00 -7.45484948e-01 +1.67568946e+00 -4.98016500e+00 +1.52620101e+00 +2.59988523e+00 +4.17176276e-01 -1.20452416e+00 -1.78458667e+00 +2.09051061e+00 -2.76052499e+00 +1.18321586e+00 +6.18835568e-01 +7.08137512e-01 +4.51138496e+00 +3.09909880e-01 -3.24780178e+00 -6.04851961e+00 +7.89773285e-01 -1.91425598e+00 -2.54925221e-01 -4.98083115e+00 +8.04650879e+00 +3.24844074e+00 -4.55899572e+00 -1.84560001e+00 -1.35120714e+00 -4.13907194e+00 +9.18854523e+00 -7.61242533e+00 +1.44414675e+00 +7.30637884e+00 +5.93664074e+00 +1.89866841e+00 +1.53919256e+00 +7.72103977e+00 -1.48150742e+00 -1.61554527e+00 +1.79708123e+00 +8.18608582e-01 +2.97476268e+00 +2.38755465e+00 -6.95035160e-01 -2.83760571e+00 -5.06425095e+00 +5.03321230e-01 -4.06583166e+00 -3.66769284e-02 -3.87199235e+00 -4.52035189e+00 +6.91575170e-01 -1.84837031e+00 -3.60129929e+00 -2.71641231e+00 +8.40364620e-02 +2.34509230e+00 -1.75304103e+00 +2.64058208e+00 +3.82828045e+00 -4.63740110e+00 -2.26601696e+00 +1.23000383e+00 -7.36535025e+00 -5.32633245e-01 +2.23364854e+00 -2.15411949e+00 +4.28721094e+00 +3.61789250e+00 -3.34689403e+00 -3.08890128e+00 +1.85155928e+00 -1.59518611e+00 -9.90142465e-01 -4.21940231e+00 +2.12897611e+00 +8.76827016e-02 +3.03942651e-01 -3.77830625e+00 -5.65149927e+00 +2.20360470e+00 -3.62513018e+00 -4.40820456e+00 -7.09150028e+00 +1.15437257e+00 -2.57713771e+00 -5.54382992e+00 +2.38523949e-02 +3.93699217e+00 -8.13921547e+00 +2.43320847e+00 -5.52434111e+00 +1.97336566e+00 +2.39007428e-01 -4.19405460e+00 +4.50737715e+00 -4.33113098e+00 +6.69102812e+00 +5.95950937e+00 +1.52687228e+00 +3.17100930e+00 -4.96904850e-01 +6.37040854e-01 +9.72654164e-01 -8.07124424e+00 +4.48921156e+00 +5.86487150e+00 +3.63033175e+00 -8.94082546e+00 -6.55261397e-01 -2.61489224e+00 +1.68852699e+00 -1.49951112e+00 -6.21488953e+00 
#Parameter# /vanilla-lstm-builder/_1 {80,20} 25601 ZERO_GRAD
-9.21808839e-01 -1.17171345e+01 -4.73713446e+00 -2.80258417e+00 -1.92238557e+00 +7.26233816e+00 +8.92245579e+00 +1.38895363e-01 -2.73089623e+00 +3.01394153e+00 -3.71019101e+00 -5.26424026e+00 +7.05706215e+00 +2.75425166e-01 +4.60674238e+00 -5.72676134e+00 +2.52992749e+00 -9.30398178e+00 +1.65491831e+00 +1.15807514e+01 +3.32933640e+00 -7.18121672e+00 -4.78429466e-01 -1.16704063e+01 -6.33963919e+00 +1.65606022e+00 +8.02768993e+00 +6.05112696e+00 -2.23165005e-01 -1.85849774e+00 +9.12998295e+00 -3.48829913e+00 +1.25949073e+00 +2.23439097e+00 -4.24245417e-01 -2.50096154e+00 +1.67305326e+00 -4.10646647e-01 -5.63221788e+00 +4.13750559e-01 -3.14455247e+00 -7.12793350e+00 +4.40751410e+00 -4.32980394e+00 +9.71436405e+00 +3.11175561e+00 +7.47476053e+00 +8.32809639e+00 -2.58203602e+00 +3.81724620e+00 -3.55041713e-01 -2.71147442e+00 -9.43090916e+00 -2.48312235e+00 -2.67857289e+00 -2.60199178e-02 +1.75260007e+00 -2.11184311e+00 -4.09653330e+00 +1.27234328e+00 -4.97869587e+00 -2.88610172e+00 -5.53920794e+00 +4.86529684e+00 -5.75314283e+00 +3.02492857e+00 +2.44037747e+00 -6.09518647e-01 +1.48114705e+00 +4.12992716e+00 +2.03468084e+00 -6.44378757e+00 -1.72545165e-01 +6.37107134e+00 -4.84563895e-02 +1.42879229e+01 +5.14185524e+00 -1.50391340e+00 -1.96097434e+00 -9.86163974e-01 +4.97410583e+00 -3.62299585e+00 +6.31762791e+00 +7.86091805e+00 +7.75827360e+00 +8.87450314e+00 +2.34095597e+00 -3.38864017e+00 -4.28103352e+00 -2.03394175e+00 +3.33318305e+00 +7.46732712e-01 +6.80174541e+00 +3.11313057e+00 +2.02817464e+00 -2.03795147e+00 -8.62975478e-01 -1.74480319e-01 +6.03235769e+00 -1.14059219e+01 -2.83598995e+00 +6.25218058e+00 -4.49747849e+00 +4.76179314e+00 +5.02502728e+00 +1.13642991e+00 +3.70192575e+00 -6.26147795e+00 +1.81335335e+01 -6.57697868e+00 -1.27976251e+00 -1.56398606e+00 -6.51370335e+00 +9.42003822e+00 +3.91046023e+00 -4.19260120e+00 +4.33956432e+00 -6.76485491e+00 -7.39512253e+00 -5.95739555e+00 -4.21391535e+00 -5.80606508e+00 -1.21113324e+00 +6.67761707e+00 +3.86808109e+00 -5.84949350e+00 +9.92899513e+00 +1.94959521e+00 -8.73628044e+00 -4.02528048e+00 +3.78830934e+00 -8.77011299e+00 +5.98357534e+00 -4.82844925e+00 +6.25088358e+00 -6.84755087e-01 +1.88899255e+00 +2.02995515e+00 -3.64022255e-01 -4.35353994e+00 +1.66367126e+00 +2.96194482e+00 -8.42606544e+00 -5.28663111e+00 +1.22554410e+00 -2.74389720e+00 +1.07232010e+00 -1.22560716e+00 -2.08574915e+00 -5.86207962e+00 +5.73966503e+00 -6.32959461e+00 +1.02313681e+01 -8.58990097e+00 +7.66022396e+00 +7.90360880e+00 -6.96727037e+00 -6.35449266e+00 +3.64109659e+00 -4.59869146e+00 +7.66287804e+00 -5.41826391e+00 +2.17765617e+00 -4.78520393e+00 +5.38020897e+00 -4.59971952e+00 +6.48135853e+00 +3.66673350e+00 +4.35051775e+00 +4.26538229e+00 -8.89253807e+00 -4.18642712e+00 -6.85088778e+00 +4.97136927e+00 -9.43055058e+00 +1.84270134e+01 -8.43988514e+00 +2.27708888e+00 +1.55553079e+00 +3.40030813e+00 -4.68905592e+00 +7.38942814e+00 -3.79745078e+00 -1.17543468e+01 -1.70911336e+00 +4.71154332e-01 -2.18567252e+00 -5.42225647e+00 -7.77030087e+00 +2.24636579e+00 +6.46961391e-01 +1.02737129e+00 +4.72423267e+00 -6.98482096e-01 -3.73524833e+00 +1.34865177e+00 +1.44364290e+01 +1.04121304e+01 +2.12195015e+00 -9.57942581e+00 -1.94141233e+00 +5.66516495e+00 -9.61209869e+00 -7.89275217e+00 +1.15655766e+01 +7.29355574e+00 -3.69034362e+00 +5.25463200e+00 +1.05864859e+00 +6.12998199e+00 +3.41669869e+00 -1.02547998e+01 -6.66575480e+00 -1.92655349e+00 -5.80380726e+00 -4.74892473e+00 -9.45867443e+00 +1.53745246e+00 +2.81952882e+00 +9.22130704e-01 -1.01776962e+01 +7.78418362e-01 +6.10947466e+00 -6.00380850e+00 +5.22527552e+00 +1.58811736e+00 +2.14052057e+00 +6.85782337e+00 +2.57136965e+00 -5.09248767e-03 -9.80899906e+00 +1.44933414e+00 -1.70423317e+00 +8.75882506e-01 +3.36781096e+00 -1.67772269e+00 +5.71629381e+00 +7.19696140e+00 +3.66554666e+00 +1.63657081e+00 +1.11168804e+01 -1.03116837e+01 +3.80927849e+00 +1.46527472e+01 +7.54961586e+00 +3.11258602e+00 +8.75136852e+00 -4.49581909e+00 +6.60579681e+00 +5.14498711e-01 +7.22840500e+00 +2.96286225e+00 -7.78958225e+00 +1.07649593e+01 -2.93835235e+00 -1.17294893e+01 +4.97773886e+00 +4.84227687e-01 -1.03900976e+01 +1.23174324e+01 +2.17936058e+01 -1.28831840e+00 +6.38474226e+00 -4.44393069e-01 +2.79203486e+00 -2.24301243e+00 +3.46314572e-02 -1.14398444e+00 +3.99255419e+00 +4.74246836e+00 +4.20479107e+00 +3.53090048e+00 -4.80526543e+00 +5.28186917e-01 +1.66465416e+01 -1.43469696e+01 +5.12323904e+00 +1.74361534e+01 +1.02161741e+01 +1.39636588e+00 +8.89852428e+00 +7.24891186e+00 +5.11392069e+00 +4.85406876e+00 +4.96890688e+00 -1.89495683e+00 +1.25784712e+01 +1.68592378e-01 +9.62606812e+00 +3.53628802e+00 +1.13124647e+01 +9.86238346e-02 -1.83137548e+00 -5.38063383e+00 -3.49532098e-01 -1.71098804e+00 +1.76431620e+00 -1.49831975e+00 +2.65633631e+00 +1.07076950e+01 -4.51435280e+00 -4.39012051e+00 +5.14593554e+00 +5.94178009e+00 -7.77210569e+00 -1.18019557e+00 +5.01089525e+00 +5.41143847e+00 +3.96832895e+00 -2.54739976e+00 -4.35670662e+00 +4.01612854e+00 +8.22007358e-01 +4.49588919e+00 -3.37506819e+00 -2.00261283e+00 +4.18002939e+00 -1.14130008e+00 -8.97692966e+00 -5.90588190e-02 -1.53144014e+00 -2.69838005e-01 -3.77801132e+00 -4.20848513e+00 -5.23168468e+00 +4.69514179e+00 -2.88512200e-01 +3.03603864e+00 -9.28630638e+00 +1.47351265e+00 +9.95928383e+00 +6.46523118e-01 +3.16956711e+00 +6.71802759e+00 -4.15065956e+00 +1.70203090e+00 -1.22786970e+01 -1.56089888e+01 +4.29003191e+00 -8.26948166e+00 -2.49396634e+00 +9.34270287e+00 +7.19014549e+00 -2.34407115e+00 -6.24495983e+00 +4.58080292e+00 -3.83631778e+00 -2.70953465e+00 -1.04196701e+01 -5.01939440e+00 +2.90309954e+00 +4.97130811e-01 +1.73095453e+00 +6.29603863e+00 +3.50365949e+00 +3.27655625e+00 -1.14893856e+01 -3.23864841e+00 -2.98140955e+00 -7.27502060e+00 +9.53454494e+00 +6.48656674e-03 -7.73705006e+00 +3.41307425e+00 -2.30011916e+00 +8.12776923e-01 +4.65737724e+00 +2.16685310e-01 -1.55674779e+00 -2.86570668e+00 +2.94923854e+00 -4.96636003e-01 -4.85628796e+00 -8.35321712e+00 +3.03368592e+00 -2.13487172e+00 -1.62365494e+01 -2.05895692e-01 -4.27140522e+00 -5.51268005e+00 -1.90702784e+00 +4.60968524e-01 +2.70749722e-02 +3.80526090e+00 +1.64393270e+00 +5.55097866e+00 +4.90687084e+00 -2.67254972e+00 +9.63402557e+00 +1.64561236e+00 +2.58494186e+00 +3.64876032e+00 -7.97126055e+00 -1.72178626e+00 -2.76883698e+00 +3.42321920e+00 -2.76557803e+00 -2.33112097e+00 +1.84144533e+00 +1.79908478e+00 -1.42147379e+01 +7.89882708e+00 -2.68323493e+00 +1.11909330e+00 -9.34057713e+00 -9.36042690e+00 -9.94280338e+00 -7.33461189e+00 +2.79206324e+00 +7.33138800e+00 +2.87879825e-01 -1.01680670e+01 +2.90899611e+00 +8.36596310e-01 -3.38619399e+00 -8.36946487e+00 +4.27384615e+00 -1.00924025e+01 -7.43240118e+00 +4.89786911e+00 +6.88295412e+00 +2.17495561e+00 -1.35288477e+00 -1.94178784e+00 -4.63380480e+00 +6.17403316e+00 +5.94239950e+00 +2.35106900e-01 +2.22792697e+00 +9.19085979e+00 +9.92430592e+00 +3.60514790e-01 +6.11176014e+00 +2.81085062e+00 -1.21309843e+01 +2.37788296e+00 -1.08160377e+00 +6.59650341e-02 +3.15323448e+00 +6.42184544e+00 +4.70566320e+00 -2.74528050e+00 -1.77840364e+00 +1.61612968e+01 +1.28207862e+00 -6.35595179e+00 -9.91994917e-01 -5.68370724e+00 +1.36117351e+00 +4.81692171e+00 +1.59076321e+00 -1.50515687e+00 -4.82013273e+00 -8.29731971e-02 +8.93964767e+00 +1.26240749e+01 +5.93714285e+00 -4.80255938e+00 -7.33549786e+00 -3.69794339e-01 -6.42981958e+00 -1.39338529e+00 -5.50459445e-01 -7.95501888e-01 -2.63449669e+00 +1.72291219e+00 -2.52896214e+00 -5.70503759e+00 +5.23748815e-01 -3.34577918e+00 -6.22877359e+00 +9.09992790e+00 +1.36830020e+00 +1.54044354e+00 -1.32229567e-01 -2.48092651e+00 +6.58829737e+00 +1.64962502e+01 -1.01040411e+01 -1.22823083e+00 -1.19170833e+00 -3.41394520e+00 -1.05207205e+01 -3.02966213e+00 +1.13602042e+00 -9.61516666e+00 +1.17586219e+00 -8.22593880e+00 +9.83850670e+00 +5.77854538e+00 +1.40453835e+01 -2.54728556e+00 -1.34959352e+00 -2.08506508e+01 +3.65334558e+00 -2.70489097e+00 -5.61633253e+00 -3.67676759e+00 -1.05544157e+01 -3.22230411e+00 +8.31201744e+00 +6.97987139e-01 -3.71795774e-01 -1.63125491e+00 -1.13674986e+00 +4.64311123e+00 -1.14947128e+00 +1.81370449e+01 +5.70460987e+00 -5.06989479e+00 +9.03820992e+00 +3.09614086e+00 -8.58019257e+00 +8.20010281e+00 +7.45481014e+00 -4.32474518e+00 -4.15606678e-01 -1.07435417e+00 +4.19191456e+00 +9.13446903e+00 +3.90929461e+00 +3.93965840e-01 +1.85737085e+00 +3.50044489e+00 -6.22504520e+00 -1.05847721e+01 +1.35709448e+01 +7.89527750e+00 +1.36838531e+01 -2.25060534e+00 -2.22218370e+00 +5.13158655e+00 -3.19427514e+00 +4.89293242e+00 -2.60131502e+00 +1.06225109e+01 -1.90768158e+00 +1.51633501e+00 -1.29367170e+01 +4.47759247e+00 -1.67909698e+01 -1.56849003e+01 -1.47991014e+00 +1.45673380e+01 -1.11745663e+01 +4.64735365e+00 +3.46065950e+00 +3.62068921e-01 -5.48049259e+00 -2.59248519e+00 +2.60163593e+00 +3.71571779e-01 +8.83263111e+00 +2.91278869e-01 +3.60575223e+00 +1.63172030e+00 -1.37960804e+00 -1.72504973e+00 -5.47352934e+00 +1.15335636e+01 +5.11894751e+00 -1.42636528e+01 +1.91348946e+00 +1.74926376e+00 -7.45187774e-02 -2.48316455e+00 +7.32183743e+00 -1.37410374e+01 +2.03512251e-01 +1.81212986e+00 +4.06352282e+00 -1.54223690e+01 +8.05958557e+00 -6.71911860e+00 -6.63160920e-01 -4.94205141e+00 +3.73371482e+00 -7.51283693e+00 -2.25900292e+00 +9.99768925e+00 +1.65526080e+00 +3.56534529e+00 +1.03766422e+01 +2.27995682e+00 +1.87625730e+00 +2.85708833e+00 +1.58124800e+01 +6.54269123e+00 -4.14697313e+00 +1.37968826e+00 -3.76414752e+00 +4.99552965e+00 -1.06443548e+01 +2.74594712e+00 +5.61411905e+00 -1.63283837e+00 -7.95883322e+00 +2.96274471e+00 -6.18285751e+00 +8.48104000e+00 -2.40081573e+00 +5.18143535e-01 -6.86289358e+00 +1.20233517e+01 +3.03969789e+00 -1.07882757e+01 +1.67102509e+01 +3.99839854e+00 -3.89847898e+00 +6.87623405e+00 +2.71882367e+00 -1.10101306e+00 +2.84086156e+00 -9.00263500e+00 +1.53280039e+01 +5.53199244e+00 +5.47320557e+00 +2.69388723e+00 -1.08204412e+01 -2.50217095e-02 -3.41674137e+00 -4.13914633e+00 +1.02219248e+00 -1.87701738e+00 +3.23492140e-01 +1.49495161e+00 +1.35590382e+01 -3.03339386e+00 -2.95792460e+00 -4.97171164e+00 -1.14952978e-02 +1.69984722e+00 +1.27800426e+01 -1.85978127e+00 +1.20224869e+00 -9.92753029e-01 -4.51529312e+00 -3.97898412e+00 +2.14402628e+00 -5.10512352e-01 -5.38832283e+00 +6.29474497e+00 -1.57111335e+00 -1.46651936e+01 -2.47892642e+00 -2.79369664e+00 -4.53670311e+00 +8.40546489e-01 +3.43617654e+00 -1.00443733e+00 +2.47457480e+00 -2.91004586e+00 +2.27200174e+00 +2.09538627e+00 -1.40299380e+00 +1.30079126e+00 -1.20888605e+01 -1.03091135e+01 -2.14105654e+00 -1.11964810e+00 +4.49345887e-01 -7.04216576e+00 +1.83893509e+01 -7.29828501e+00 -3.10311055e+00 +1.64686756e+01 -1.14940844e+01 -9.48638344e+00 +8.16425323e+00 +3.06158751e-01 -6.87971401e+00 +1.43953836e+00 -3.19118023e+00 -6.23647749e-01 +1.12837648e+00 +2.83442706e-01 -2.53445220e+00 +3.48397350e+00 +2.26656556e+00 +4.65419865e+00 +1.11627948e+00 +4.97863263e-01 -2.92904472e+00 -4.44670820e+00 -3.30825233e+00 +5.16958714e+00 -8.63292754e-01 +5.92318869e+00 +5.31550026e+00 +1.72650146e+00 +8.87624550e+00 -8.00811577e+00 -1.86975658e+00 -4.05687094e+00 -1.58093810e-01 +9.31324959e-01 -3.31694889e+00 -5.76419687e+00 +5.76669633e-01 -5.10721350e+00 +6.47142363e+00 -2.85588789e+00 +1.21104553e-01 -6.48118639e+00 +2.65320349e+00 +5.12403440e+00 -5.45953703e+00 +1.30443418e+00 -3.24283791e+00 +8.92446578e-01 -8.95845985e+00 +2.39728808e+00 -5.86323798e-01 -4.53112423e-01 -7.33318853e+00 +5.61978102e+00 -8.64096260e+00 +5.81748724e-01 -5.92335999e-01 +2.55172157e+00 -8.75658226e+00 +5.47954655e+00 +8.98231316e+00 -1.22205200e+01 +7.44015360e+00 -4.50541067e+00 +5.45117712e+00 +2.18096542e+00 -2.67390800e+00 -1.30197973e+01 +2.79902315e+00 +2.18613887e+00 +5.25351858e+00 -6.16060638e+00 +1.13206120e+01 +2.54444790e+00 -1.21112623e+01 +1.78374157e+01 +7.68998718e+00 +2.08027077e+00 -4.18899202e+00 -3.38817430e+00 -8.93341732e+00 +1.15793872e+00 +1.30423994e+01 +6.63579988e+00 -6.83707148e-02 -1.31035337e+01 +5.05336332e+00 -1.05328159e+01 -8.11002731e+00 +9.69583130e+00 +1.83855510e+00 -2.30028152e+00 +2.70921493e+00 -7.19005728e+00 -5.61433506e+00 -1.59732485e+00 -2.17258978e+00 -8.25409412e-01 -7.06102312e-01 +6.00479555e+00 +9.76945400e+00 -2.86322832e+00 -1.39820087e+00 +6.64901304e+00 -4.83859825e+00 +6.49950600e+00 -7.92496681e-01 -1.25287485e+01 -2.54201055e+00 +1.30885353e+01 +2.64917588e+00 +2.13534880e+00 -5.21105623e+00 +7.66217113e-01 +6.84238529e+00 +2.28394866e+00 +2.52916789e+00 -1.07755604e+01 +5.23224783e+00 +8.21100044e+00 -1.23946667e-01 -6.62950993e+00 +3.75767660e+00 +7.52456999e+00 +1.30246854e+00 +1.69687355e+00 -1.19314489e+01 +1.09820471e+01 +3.10805488e+00 -2.01635480e+00 -1.67404640e+00 -1.59988461e+01 +5.56659269e+00 +3.42366338e+00 -1.15054083e+00 -1.18493881e+01 +7.41189623e+00 +3.58064914e+00 -8.05102158e+00 -9.85859585e+00 -6.99798763e-01 -2.11545572e-01 +8.50787759e-01 -1.40646863e+00 -1.41993463e+00 +4.41140413e+00 -2.32150745e+00 +4.97236395e+00 -6.43105268e+00 -5.75118542e-01 +3.60799837e+00 -2.39065337e+00 -1.06816683e+01 +8.81850243e+00 +3.87132573e+00 -1.95545363e+00 +1.27401762e+01 +1.11847525e+01 -3.65274119e+00 +3.10249853e+00 -4.74304867e+00 -7.83361530e+00 +2.61731696e+00 -3.81681442e-01 -1.08512259e+00 +4.82264709e+00 -4.52645350e+00 -4.02800083e+00 +6.22564602e+00 +2.89424849e+00 +1.99950218e+00 +1.00141525e+01 -1.87632358e+00 +1.03157461e+00 -2.20344973e+00 -6.98778480e-02 +5.62914371e-01 +4.88014936e+00 +4.90419865e+00 -1.84029365e+00 -3.52553344e+00 +3.35912466e+00 +6.89047575e+00 +4.90057611e+00 +8.57507229e+00 +6.35529160e-01 +1.20479524e+00 -9.06910598e-01 +6.75823879e+00 +4.92938757e+00 +8.09188858e-02 +4.01629257e+00 +5.06132984e+00 +1.32400360e+01 +7.49976110e+00 -1.00077248e+01 -5.41220379e+00 +1.26999722e+01 +2.96921110e+00 -5.07249975e+00 +4.10140848e+00 +1.06862249e+01 -1.23730602e+01 +4.57532024e+00 +4.98824835e+00 +5.59706354e+00 +4.45290613e+00 +8.94602597e-01 +2.17205480e-01 +3.81102419e+00 +3.43754578e+00 -4.14857674e+00 -4.49312210e+00 -1.59598696e+00 +3.07127029e-01 -6.49396658e+00 -1.10869557e-01 +1.57672632e+00 -3.61658764e+00 +3.41138268e+00 +2.73315525e+00 -3.23884201e+00 +3.85388322e-02 -5.77128232e-01 -2.55590129e+00 +2.19489837e+00 +5.07741261e+00 -6.65854931e+00 -3.77228093e+00 +2.88550043e+00 -6.04804468e+00 +3.09324980e+00 +9.68341637e+00 -6.05818081e+00 +7.75420904e+00 -8.36356640e-01 +7.38049078e+00 -2.65239930e+00 -1.14916563e+01 +1.99505723e+00 +1.95897019e+00 +5.99181747e+00 -1.67156684e+00 +2.59958297e-01 +3.44917274e+00 +3.37142849e+00 -2.64137101e+00 -1.08793621e+01 +1.02691102e+00 -8.16054630e+00 -1.27723992e+00 -7.66018152e+00 +5.83205128e+00 -4.94275856e+00 +2.57734871e+00 +3.58440280e+00 +1.55683124e+00 -4.49578714e+00 -1.01336575e+01 +7.91961145e+00 +9.53142643e+00 +4.45690966e+00 -2.91650325e-01 +1.46394515e+00 -8.75767136e+00 -1.80793858e+00 -5.86399734e-01 +4.07751417e+00 -5.48024178e+00 -6.62970877e+00 +1.02204704e+00 -8.56514454e-01 +1.61808598e+00 -2.12600398e+00 -1.09541821e+00 -1.96076310e+00 +6.23710918e+00 -2.81669641e+00 +6.89804506e+00 +7.78829288e+00 -8.26062202e+00 -3.25892448e+00 -6.34175718e-01 +8.14155936e-01 -4.62779236e+00 -8.15433884e+00 +9.37406158e+00 +9.79072094e+00 -3.85466743e+00 +7.47477636e-02 -6.46102333e+00 +2.51710653e+00 +4.54235601e+00 -1.55081242e-01 +9.65640128e-01 -1.65202296e+00 +1.05214005e+01 -1.28370130e+00 -2.97069550e+00 -7.36873031e-01 +6.44518912e-01 -2.96286345e+00 +8.57099116e-01 +4.02486849e+00 +9.71231461e+00 -3.33051234e-01 -1.19148846e+01 +1.15808363e+01 +8.34189987e+00 +2.14545536e+00 -6.36412954e+00 +4.50323820e+00 +1.22513425e+00 +5.65427828e+00 +4.33392435e-01 +1.44336390e+00 +4.29239798e+00 +8.71094990e+00 -5.24922386e-02 -1.66506991e-01 +4.59819734e-02 -8.90336931e-01 -4.15340185e+00 +9.58616614e-01 +5.97465467e+00 +1.51846657e+01 +3.77288485e+00 +6.49672523e-02 +4.87698126e+00 +6.81806564e+00 +2.76895189e+00 +4.36651039e+00 +1.14383411e+01 -2.07724786e+00 +1.66390038e+00 +8.14874268e+00 +1.06385641e+01 +8.39518738e+00 -1.01002960e+01 +1.22780949e-01 -1.46213162e+00 +1.36705351e+00 -9.68558407e+00 -6.34257460e+00 +6.00644636e+00 -3.98297381e+00 +8.83827686e+00 +4.84564447e+00 -8.93999481e+00 -6.63014936e+00 +7.06490187e-04 +2.08715272e+00 +3.23139405e+00 +2.81458831e+00 +1.12257385e+01 -1.40476036e+00 -6.25884628e+00 +3.31176305e+00 +7.79473424e-01 -1.42321720e+01 -5.15417147e+00 +5.28756380e+00 -1.90248847e+00 +5.69703865e+00 +2.49684501e+00 -7.46140003e+00 +3.94227338e+00 -5.79493105e-01 +2.63965440e+00 +1.43526487e+01 +2.80338049e-01 +4.21329975e+00 -3.69925618e+00 -1.48726034e+00 -1.71283937e+00 +1.79041612e+00 +3.27486062e+00 +7.52508783e+00 -4.71521235e+00 +3.00172925e+00 +1.61338067e+00 +3.27737403e+00 -5.53430891e+00 -1.75616431e+00 -1.60696745e+00 -1.95823467e+00 -2.19330525e+00 -8.45656681e+00 -2.01603127e+00 -1.70857811e+00 -4.35691071e+00 -2.09994411e+00 -3.43499756e+00 +1.58094728e+00 -8.96603870e+00 -5.26640320e+00 +1.47034335e+00 +6.58018398e+00 +7.60290766e+00 -1.03471494e+00 -1.17596598e+01 +1.12031221e+01 +5.48749828e+00 +9.12826920e+00 +8.39095688e+00 -6.84463406e+00 +4.19908381e+00 -5.66017485e+00 -2.18350410e+00 +4.69730663e+00 +5.57431936e+00 -5.56717443e+00 -1.98616314e+00 -1.06703186e+01 -6.88699722e-01 -6.60733080e+00 +6.54807949e+00 -1.61138082e+00 +2.42869234e+00 +8.67562234e-01 -1.96141374e+00 +1.07503643e+01 -4.29624033e+00 -9.82386303e+00 -6.65656185e+00 -3.06466889e+00 +9.54272866e-01 -3.90922046e+00 -9.28266430e+00 -1.62997742e+01 -8.47837639e+00 +9.54489422e+00 -4.89406615e-01 +2.39859796e+00 +6.97373819e+00 -1.98502588e+00 -3.91729307e+00 -4.48420572e+00 +2.31158566e+00 +4.35759425e-01 +2.19112143e-01 +9.54634488e-01 -2.61403680e+00 +5.44662046e+00 -9.57262325e+00 +2.28329635e+00 -1.58234820e-01 +8.33198607e-01 +1.05897737e+00 +4.24756479e+00 -4.58468294e+00 +7.42817783e+00 -7.16761684e+00 -2.06982255e+00 +1.59753895e+00 +1.90755522e+00 +4.78158855e+00 +9.93489742e+00 -6.38806343e+00 -1.09057293e+01 -1.22992020e+01 -5.19580269e+00 +8.19938278e+00 +5.11981392e+00 +1.69530940e+00 -1.58892667e+00 +5.99430227e+00 +1.02393818e+01 +1.40955620e+01 +6.70781553e-01 +5.65673876e+00 -4.28872871e+00 -1.17647533e+01 +9.56605971e-01 +3.08151037e-01 -1.89505827e+00 -5.68445301e+00 +3.78321791e+00 +1.33305893e+01 -8.53194904e+00 -6.17665201e-02 +1.59658794e+01 -2.00967288e+00 +2.81476045e+00 -3.74252772e+00 +5.05688572e+00 +4.16488743e+00 +3.14914823e+00 -1.17905879e+00 -3.47817326e+00 -8.40666866e+00 +2.71368176e-01 +5.26573038e+00 +1.29675312e+01 +9.47663116e+00 +2.88760400e+00 -2.78301954e+00 +3.40298963e+00 +6.46505976e+00 -4.81092262e+00 +1.18381190e+00 +2.60270447e-01 -6.78366756e+00 -6.44870138e+00 +3.64508438e+00 -3.28996122e-01 +9.12242985e+00 +3.43098998e+00 -3.94213289e-01 +3.28921652e+00 +1.93038857e+00 -6.36510015e-01 +1.39269853e+00 +2.40688920e+00 +1.17995663e+01 -2.59681988e+00 -6.17975235e+00 +8.46956921e+00 +1.48216307e+00 -8.94733524e+00 -4.55821562e+00 +3.22748184e+00 -8.31892395e+00 -1.57241786e+00 +1.37455797e+00 -7.30199397e-01 -4.83305740e+00 -1.19934309e+00 -2.88247085e+00 +6.10964298e-01 +6.62183237e+00 +1.95241010e+00 -3.01052570e+00 +1.41438469e-02 +7.92090797e+00 +8.01242161e+00 -3.60178709e+00 +3.22171593e+00 -1.20322485e+01 -1.22105303e+01 -2.87775373e+00 -1.34927094e+00 +1.37438190e+00 -1.26369464e+00 -6.28636026e+00 -1.45744193e+00 -3.71394539e+00 +3.46532750e+00 -9.66926038e-01 -4.98384523e+00 -5.03220606e+00 -2.23705673e+00 +1.05651121e+01 +2.98371077e+00 -4.19784737e+00 -1.32704771e+00 -3.85033631e+00 +1.13205171e+00 +5.30147839e+00 -5.29610062e+00 +7.49583292e+00 -1.09733212e+00 -2.58114004e+00 +6.69233561e+00 +6.37951899e+00 +5.57699108e+00 +7.66724491e+00 +3.86290938e-01 +3.07201624e+00 +4.35250616e+00 +3.05564791e-01 +8.26159096e+00 -2.86804080e+00 -8.22148514e+00 +2.72915888e+00 +4.98311472e+00 +7.51643944e+00 -2.17100310e+00 -5.98951149e+00 +2.68530107e+00 -1.41941333e+00 +5.27182150e+00 +1.70071340e+00 +1.49169612e+00 +7.64747572e+00 +1.06394686e-01 -4.24421740e+00 +6.78268135e-01 +3.75750303e-01 +3.00955892e-01 -8.73087883e+00 +3.63578105e+00 -3.81011128e+00 -1.44087315e+00 -4.74114752e+00 -1.88485730e+00 -4.63911963e+00 +8.84055519e+00 +3.83855200e+00 -7.01919842e+00 -9.62103367e-01 +2.71549606e+00 -1.10345869e+01 -3.15760279e+00 +1.31066453e+00 -1.31271565e+00 -5.54164648e-01 +4.84774053e-01 +2.09311390e+00 +2.85131049e+00 -2.27295423e+00 +5.31478071e+00 -4.88544285e-01 -2.02261543e+00 -2.49437213e+00 -7.57819891e+00 -4.37340689e+00 +3.43349290e+00 -9.34308767e-03 -1.35748935e+00 +4.02316713e+00 +1.62629108e+01 +9.61190128e+00 +9.70625132e-02 +7.45566559e+00 +1.59307098e+00 +3.01336217e+00 +2.75048590e+00 +8.27298260e+00 +3.61434817e+00 +2.26730371e+00 +1.23995132e+01 +8.86906910e+00 -3.83307904e-01 +4.74190187e+00 +3.39527893e+00 -8.33031535e-01 +3.86739588e+00 +7.25146294e-01 +4.71549940e+00 -4.47333288e+00 +2.01582074e-01 +1.74380690e-02 -1.94101083e+00 +5.36550140e+00 +1.18574429e+01 -3.01238132e+00 +2.91842842e+00 +4.83440828e+00 -2.25351572e+00 +9.12605667e+00 +4.84959078e+00 +1.15271175e+00 +7.33490562e+00 +1.20290898e-01 -5.78112936e+00 +8.64733887e+00 +1.17414200e+00 -8.62221539e-01 +4.87282133e+00 -1.23552394e+00 +1.98466092e-01 +1.60716820e+01 -1.19216025e+00 +6.89750147e+00 +6.82867098e+00 -2.35620070e+00 +4.55496645e+00 -4.70687580e+00 -8.98127270e+00 +7.88562393e+00 +3.32409453e+00 +1.70892274e+00 -7.86789119e-01 +1.90045559e+00 +1.40131960e+01 -1.07014847e+01 +1.07803643e+00 -2.37258768e+00 -8.49435449e-01 -2.68750858e+00 +1.05648911e+00 -1.17319736e+01 +3.14242911e+00 +1.11744709e+01 +2.52631474e+00 -2.39891863e+00 +1.75285661e+00 +3.14908886e+00 -8.69836986e-01 +4.33480501e+00 -7.74376571e-01 -1.54308856e-01 +4.50508928e+00 +5.46180964e-01 -1.25238776e-01 +4.42111349e+00 -4.96679068e+00 -2.47267578e-02 +1.08191557e+01 +8.37337112e+00 +4.52400923e+00 +3.16629839e+00 -1.79909210e+01 -9.50025272e+00 +5.83860016e+00 -1.95964622e+01 -1.07353449e+01 -3.73997998e+00 -5.03397369e+00 -8.76906204e+00 -2.66963530e+00 +5.90246630e+00 +8.25497532e+00 -8.07097530e+00 -2.11005545e+00 +3.48276114e+00 -4.00579691e+00 -3.65591025e+00 +3.21617723e+00 +8.81041586e-02 +3.55899066e-01 +3.91595221e+00 -4.68213177e+00 +1.07086048e+01 +5.51499510e+00 -1.46369905e+01 -2.18545699e+00 +7.02781725e+00 -4.83235359e+00 -3.07733488e+00 +4.38803625e+00 -9.80656564e-01 +1.88551509e+00 +3.85860062e+00 +1.98448014e+00 +3.47905517e+00 -9.36047268e+00 -5.24827051e+00 +6.62262344e+00 +5.90142775e+00 -3.71431899e+00 +9.68841934e+00 +6.15125751e+00 -6.74746084e+00 -1.34490814e+01 +3.48626637e+00 -1.05264103e+00 -1.18888350e+01 -1.46096230e+01 -8.54355907e+00 +8.21436310e+00 -5.09870100e+00 -1.31898594e+00 -7.73636818e+00 -1.07147722e+01 +4.05739975e+00 +6.43597126e+00 +6.24433947e+00 +1.83028316e+00 -2.04908156e+00 +1.31632793e+00 -8.85204697e+00 -1.20707788e+01 -5.35004282e+00 -5.17688608e+00 +6.52382755e+00 +5.38124382e-01 -8.21420193e+00 +2.94342208e+00 -3.17773032e+00 +2.17759156e+00 -7.12135077e-01 +1.92534137e+00 +1.95571661e+00 -2.22681475e+00 +1.55411816e+00 -2.50647354e+00 +6.06671691e-01 -1.00526161e+01 +1.37006426e+00 +1.13126278e+01 +8.22009468e+00 +1.61007452e+00 +8.83770561e+00 +8.40730762e+00 -9.35871676e-02 -3.84699082e+00 -3.48752666e+00 +1.36789055e+01 +3.07711411e+00 -2.96360493e+00 +8.25942516e-01 +5.30512047e+00 -3.58506680e+00 +1.20701780e+01 +5.56141567e+00 -3.94975829e+00 +1.43096542e+00 +6.57696533e+00 -2.07853127e+00 +5.36218882e+00 -3.07626224e+00 -3.31492281e+00 -2.45948243e+00 +2.13682628e+00 +9.22648144e+00 -8.59312725e+00 -8.01641178e+00 -1.29167831e+00 +3.12160945e+00 -2.19448447e+00 +8.64412880e+00 +6.67210054e+00 -7.39511251e+00 -9.92391014e+00 -8.47393894e+00 -7.07924306e-01 +8.57397988e-02 -1.37028933e+00 +8.70617294e+00 -3.08881474e+00 -2.24492745e-03 +5.85388041e+00 +1.05033386e+00 +9.91856575e+00 -1.06663160e+01 -1.25566626e+01 +5.18905354e+00 +7.42895842e+00 +4.12224889e-01 -6.10054541e+00 -2.13019180e+00 -3.90556669e+00 -1.18620181e+00 +7.57867384e+00 +4.92913008e+00 -1.17147779e+01 +1.20081341e+00 +8.80685329e+00 -5.84574556e+00 +4.67652941e+00 +3.84617186e+00 -4.69455576e+00 +5.27561760e+00 +3.04510295e-01 -6.01737356e+00 +6.89435720e-01 +2.33605337e+00 -2.89028215e+00 -3.32635164e-01 -7.59524393e+00 +1.00091820e+01 +1.06701708e+01 +4.81840515e+00 -8.27587032e+00 +4.98258448e+00 +8.83458328e+00 +1.05309963e-01 -7.31504583e+00 +1.91746926e+00 -5.11223698e+00 -4.62874794e+00 -5.33235312e+00 +5.92701530e+00 +1.48916054e+00 -1.09848547e+00 +5.78010893e+00 +2.35472377e-02 -5.94733334e+00 -4.88015938e+00 -5.49596906e-01 -1.01156626e+01 -8.18307209e+00 -2.64545512e+00 -9.37949181e+00 -7.31502485e+00 -7.37810075e-01 +8.20051765e+00 -4.88941240e+00 -1.31003370e+01 +3.83824968e+00 +2.16120672e+00 -1.39905758e+01 -1.74174440e+00 +8.06533909e+00 -4.07239437e+00 +3.51378202e+00 +2.63245130e+00 -4.56826019e+00 +3.79097052e-02 -1.00580721e+01 -5.09615612e+00 -5.67340279e+00 +4.20383900e-01 -1.62838287e+01 +1.03549957e+01 +9.57259655e+00 +7.90295315e+00 +1.13140087e+01 -2.11382103e+00 -4.71215200e+00 +5.52252913e+00 +5.64380693e+00 +9.65330696e+00 +1.11542892e+00 +4.52088451e+00 +3.27180195e+00 +5.77548075e+00 +4.81116724e+00 -5.47249222e+00 +1.68237896e+01 +8.29928970e+00 +6.55385303e+00 -2.40818048e+00 -6.49784565e+00 +3.20780683e+00 +3.54465795e+00 -4.76744556e+00 -8.00962543e+00 +4.83146763e+00 +1.60977411e+00 -5.98178244e+00 -2.34721518e+00 +6.60682917e+00 +5.22603893e+00 -3.51668382e+00 -1.35003376e+00 -3.85782290e+00 -2.95971012e+00 +3.64022255e+00 +4.19688845e+00 -8.75501156e+00 -1.29468813e+01 +2.39667153e+00 -4.94399786e+00 -6.07989693e+00 -2.44531417e+00 
#Parameter# /vanilla-lstm-builder/_2 {80} 1281 ZERO_GRAD
-1.92512298e+00 +3.96264195e+00 -7.98564911e+00 -2.51920366e+00 +3.92386341e+00 +8.37231922e+00 +5.07828236e+00 +5.42331487e-02 +4.23860025e+00 +2.91281438e+00 +7.50170648e-01 +3.78426284e-01 -2.66110110e+00 -5.06906796e+00 -1.23900235e+00 -1.38833106e-01 -6.74957561e+00 +3.28405786e+00 +7.81094646e+00 -4.43399072e-01 +7.51150703e+00 +6.07083654e+00 -6.67898476e-01 -2.06497860e+00 +1.18048763e+00 -4.54959297e+00 -1.62214470e+00 +2.19151616e+00 +1.35959423e+00 +4.38933468e+00 +5.70635271e+00 +9.48432159e+00 -1.02777874e+00 +5.90098262e-01 +8.38800192e-01 +7.14106989e+00 -2.58244753e+00 -7.19131565e+00 -1.39930475e+00 +3.75052571e+00 -1.62428510e+00 +8.16896057e+00 +3.48967004e+00 -5.28448296e+00 -1.00569141e+00 +8.96895587e-01 +6.91680193e+00 +6.14009905e+00 +4.31250000e+00 -6.41333628e+00 +1.00467291e+01 +1.21682520e+01 +4.34560108e+00 +5.10271692e+00 -8.75437164e+00 -5.72270489e+00 +1.49669540e+00 +5.47951031e+00 +4.94398832e+00 +2.79372191e+00 +3.05693555e+00 +2.99817085e-01 +1.28824615e+00 +2.13109136e+00 -7.60223293e+00 -9.82755280e+00 +9.67729378e+00 +7.16983175e+00 -7.43453693e+00 -4.05110216e+00 +8.52560139e+00 -9.97350025e+00 +1.83579934e+00 -6.33880424e+00 +5.82241201e+00 +6.63426542e+00 +3.13519979e+00 -1.77483216e-01 +1.11713278e+00 +7.88677263e+00 
#Parameter# /vanilla-lstm-builder/_3 {80,20} 25601 ZERO_GRAD
+3.15319276e+00 -7.65373278e+00 +8.28211117e+00 +8.07223988e+00 +3.78127933e+00 +5.57935953e+00 -2.59151959e+00 -2.94982100e+00 -5.78560877e+00 +3.67951751e+00 -1.13437977e+01 -3.89717913e+00 +2.09292722e+00 -3.85247731e+00 -1.20307124e+00 -6.91609097e+00 +1.73973632e+00 +1.95449606e-01 +5.14938951e-01 +5.31435919e+00 -7.50311804e+00 -4.30155802e+00 -1.53599000e+00 +6.96484709e+00 -4.14248991e+00 -8.68855190e+00 -3.80193591e+00 -4.05860281e+00 +1.69943857e+00 +4.99163437e+00 -6.06335545e+00 -9.53876019e+00 -7.98827112e-01 -2.44998875e+01 -2.15048575e+00 +1.62968427e-01 +7.98090744e+00 -6.44921017e+00 +9.15809810e-01 -3.68766332e+00 -3.97796941e+00 -9.29719880e-02 -2.63025820e-01 +7.87060916e-01 -7.87762403e-01 +1.29440951e+00 -6.54550076e+00 +2.20842004e+00 +6.51963472e+00 +7.17201471e+00 -1.07414074e+01 -4.70935917e+00 +2.17798248e-01 -6.54502487e+00 -7.04727364e+00 -9.86412644e-01 -7.01498652e+00 -1.00611675e+00 -2.23270679e+00 +2.49433875e+00 -2.56800699e+00 -1.78196645e+00 -6.51776791e+00 -6.40842009e+00 +1.09874368e+00 -5.02814341e+00 -1.20973701e+01 +4.64835453e+00 +5.96635389e+00 +2.04692364e+00 +4.28182793e+00 -7.08969608e-02 -4.67484999e+00 +3.47912073e+00 +8.57420713e-02 +3.26801109e+00 +1.56029826e-03 -4.09731197e+00 -6.01252031e+00 +1.98130333e+00 -5.59190083e+00 -1.38395739e+00 +6.11845732e-01 -1.16184080e+00 -4.39254475e+00 +3.79951835e+00 +3.66039455e-01 +8.75093997e-01 -1.13861275e+00 +4.89698648e+00 +1.01221550e+00 +6.47823572e+00 +2.34875321e+00 -4.08053398e+00 +5.89173269e+00 +4.22942972e+00 -1.40322280e+00 +3.91643023e+00 +4.90688419e+00 -2.14400840e+00 +1.32515974e+01 -3.68413353e+00 -6.75262785e+00 +1.95133758e+00 -1.15080967e+01 +5.23994386e-01 +1.41051555e+00 +4.70321083e+00 +9.78760815e+00 -8.78602886e+00 -3.08524489e+00 -3.17881060e+00 -9.81273746e+00 +1.18863620e-01 -3.72385430e+00 -1.39254177e+00 -5.74937153e+00 +4.29903984e-01 -1.93708813e+00 +7.00765312e-01 +4.40393496e+00 -4.69302845e+00 +5.51246762e-01 +1.33232033e+00 -1.13361902e+01 +3.58007932e+00 +3.69780183e-01 +3.72716284e+00 -2.27250504e+00 -5.39300728e+00 -9.16768837e+00 -1.38067710e+00 +1.69289315e+00 +7.18735933e+00 -3.58937645e+00 -7.17664242e-01 -1.74010396e+00 -3.82852721e+00 -4.86898422e+00 +3.96392989e+00 +6.48726165e-01 +7.68205500e+00 -1.32202446e+00 +9.34469795e+00 +3.98494720e+00 -2.92233443e+00 -6.61273766e+00 +8.28149128e+00 +2.76097798e+00 +4.63779300e-01 +3.25305271e+00 +2.00854972e-01 -2.36632183e-01 +5.82180786e+00 -2.76983881e+00 -2.94814181e+00 +4.37000465e+00 +5.38962269e+00 -4.26664591e+00 -2.05542445e+00 +3.93881202e+00 +3.49301147e+00 +7.48940516e+00 -5.48353624e+00 +7.71878433e+00 +1.78202200e+00 +1.06128874e+01 -1.03498449e+01 -1.43144150e+01 -3.35309720e+00 +1.27168357e+00 +7.52475643e+00 -7.13423109e+00 -1.21135683e+01 -2.94035864e+00 +6.80031490e+00 -6.36643982e+00 +5.23167551e-01 +3.65645814e+00 +6.14643455e-01 -5.74528694e+00 -1.13105893e+00 +6.22371769e+00 -8.28922749e+00 -1.73801899e+00 -2.52813363e+00 +5.44315529e+00 -5.62033319e+00 -1.17081423e+01 -2.37815323e+01 -5.24357796e+00 -3.85528326e+00 +1.44840374e+01 -1.24695368e+01 -6.95107889e+00 +1.38721628e+01 +2.20028210e+00 -2.08215618e+00 +1.36457229e+00 -5.59898758e+00 +6.22720957e+00 +1.02345428e+01 +2.27362633e+00 -3.85214639e+00 -7.89774656e+00 +4.09475803e-01 +2.64668679e+00 -1.38296223e+01 -6.07867718e-01 -5.95526934e+00 -2.21627617e+00 -2.47581530e+00 +4.40422773e+00 -4.45390797e+00 +7.90988684e+00 +5.35728502e+00 -4.32582760e+00 +3.33718705e+00 +1.09832640e+01 -4.37050629e+00 -2.07807136e+00 -1.01337738e+01 -1.68672097e+00 +3.85682893e+00 -9.96929741e+00 -1.81897151e+00 +4.51355410e+00 +1.41662014e+00 -3.33840299e+00 +9.33592892e+00 +8.88540936e+00 +2.37540722e+00 +1.09782114e+01 -1.02930181e-01 +9.14929485e+00 -6.33643419e-02 +5.88267899e+00 -1.25184059e+00 +2.81029058e+00 -1.12054479e+00 +4.73446757e-01 -5.66553307e+00 -1.05895758e+00 -7.87662315e+00 +1.66166872e-01 -6.52678108e+00 +1.51663876e+00 -1.63544941e+01 -4.38726330e+00 -6.27071977e-01 +1.99736762e+00 +2.68665791e+00 -7.52318907e+00 +1.04805489e+01 +1.36156101e+01 -1.10019226e+01 -7.54553497e-01 +2.45574498e+00 -4.07580900e+00 -2.72995561e-01 +4.64696407e+00 -1.31797647e+00 +5.84301710e+00 +8.58220291e+00 +2.17324495e+00 -8.28291607e+00 -7.75059366e+00 -2.84354186e+00 +8.54988384e+00 +2.56306052e-01 +7.01920605e+00 +8.56269073e+00 +6.62441444e+00 +1.86399212e+01 +1.51028528e+01 -5.40642118e+00 -8.64537525e+00 -9.57516956e+00 +1.72927322e+01 -3.84063101e+00 +3.65346575e+00 +6.43920481e-01 +9.41076565e+00 +1.34802902e+00 -8.71706784e-01 +1.11289454e+01 +8.25476170e+00 -9.08520412e+00 +1.40134081e-01 -2.80973744e+00 +6.54188991e-01 +1.12829275e+01 +2.93548197e-01 +1.41558151e+01 -3.93680286e+00 -1.86417592e+00 -3.47036386e+00 +4.12431049e+00 +7.06381845e+00 -1.00378022e-01 +9.69875526e+00 -2.21299037e-01 +5.38780832e+00 -6.67303371e+00 -5.77019882e+00 -3.10326600e+00 +4.00479269e+00 -3.89251757e+00 -2.43259597e+00 +6.71413040e+00 -8.98334563e-01 +3.58989310e+00 -2.68552732e+00 -6.04269314e+00 +1.34564066e+00 -3.21578598e+00 -6.60109949e+00 -1.17581916e+00 +2.57396984e+00 -4.80851889e+00 -5.48594654e-01 +5.90297031e+00 -4.85386229e+00 +2.32046652e+00 +1.02139740e+01 -1.79182839e+00 -9.37726498e+00 +2.76916623e+00 -1.31584072e+01 +2.71553898e+00 -3.89175558e+00 +3.35287285e+00 -6.15861082e+00 -2.69182515e+00 -1.95881996e+01 +3.34163451e+00 -8.97634697e+00 -2.88775110e+00 -8.41211319e+00 +6.73208380e+00 -1.34754162e+01 -6.86202526e+00 -2.16658421e+01 +9.23433399e+00 +1.05283833e+01 +3.18774045e-01 +9.24467325e-01 +9.01869774e+00 +8.18947887e+00 +2.40146375e+00 +1.45414007e+00 -1.05204439e+01 +3.06505728e+00 -1.02615204e+01 -5.87235403e+00 +2.02620745e+00 -2.04373860e+00 +2.05679297e+00 +6.24976218e-01 +1.66899929e+01 -4.85384321e+00 -1.10026014e+00 -1.61147499e+00 +8.84443188e+00 -8.25456047e+00 +1.24045839e+01 -7.56136715e-01 +2.72718620e+00 +7.13777447e+00 +7.90384531e+00 -1.27379150e+01 -7.51706839e+00 -2.39126968e+00 -6.04245710e+00 -3.58483505e+00 +1.36171353e+00 -3.53909016e-01 +1.85819313e-01 -8.10723484e-01 +4.81519604e+00 +7.95526087e-01 -6.79858065e+00 -6.92904520e+00 -4.00106907e+00 +9.82357216e+00 +4.33897543e+00 -7.60528469e+00 +5.74737072e+00 +1.36787856e+00 +5.37385368e+00 -1.10390604e+00 -1.09594250e+01 -5.88590717e+00 +9.40006638e+00 -1.19490118e+01 -7.92387366e-01 -1.19055548e+01 +1.95105016e+00 -6.01340103e+00 +4.29524755e+00 +3.54087144e-01 +2.77406836e+00 -5.78677464e+00 -6.38611412e+00 +1.23072948e+01 -8.57107162e+00 -1.14409578e+00 -8.94840777e-01 -1.32139349e+00 -2.76593614e+00 -2.57228708e+00 +3.06003737e+00 -2.68470597e+00 -1.66052461e+00 -5.82072914e-01 +3.45529747e+00 +8.24266136e-01 +5.10286474e+00 -8.68894100e-01 +8.29535770e+00 +1.15578394e+01 +8.82095909e+00 +3.23337579e+00 -9.94642830e+00 -8.45711708e-01 +7.44659853e+00 +4.83085155e+00 -2.00455832e+00 -8.74301052e+00 +1.92198193e+00 +8.18957210e-01 +6.79849339e+00 +4.81494665e+00 +4.79937887e+00 +1.44569597e+01 +3.75235009e+00 +4.13435507e+00 -2.35774994e+00 -5.15568495e+00 -1.43757782e+01 -2.70464301e+00 +1.29567254e+00 +2.14121985e+00 -2.72006154e+00 +1.58320820e+00 +5.23030996e+00 -8.04275274e-01 +3.38326049e+00 +3.93686724e+00 -1.50480425e+00 +1.76103485e+00 -4.96309614e+00 -3.02988124e+00 +8.76800251e+00 +6.86685228e+00 -2.06168199e+00 -1.10665047e+00 +5.52637291e+00 -8.16178694e-02 +2.13627410e+00 -4.03414059e+00 -1.25687003e+00 +5.19257069e+00 -1.74020767e+00 -5.00673628e+00 -1.36724162e+00 +7.24005795e+00 -8.98598194e+00 +3.04048538e+00 +1.27144403e+01 -3.34600949e+00 +4.77257729e-01 -4.90910578e+00 +1.48390085e-01 +7.65988159e+00 -9.68594170e+00 -2.69974828e+00 +2.32085988e-01 -1.90351093e+00 +1.28774090e+01 +4.31843185e+00 -1.57350850e+00 +2.76495266e+00 -2.77877641e+00 +1.92949939e+00 +4.48759842e+00 +3.73332286e+00 -3.64316130e+00 +2.78017139e+00 +9.12092113e+00 -4.61593103e+00 +6.34072685e+00 +3.01423216e+00 +1.30291500e+01 +5.77901661e-01 +2.46619511e+00 +4.93640232e+00 -2.30590177e+00 +1.06271124e+00 +7.33825803e-01 +1.45843554e+00 -1.06302891e+01 -2.68300629e+00 -5.06659889e+00 -9.61824036e+00 +4.94291210e+00 -9.23271954e-01 +1.63225186e+00 -2.26006246e+00 -2.70384345e-02 +1.07526541e+00 -6.35595131e+00 +3.45863676e+00 +2.39604549e+01 -1.46338129e+00 -2.06579089e+00 -3.91742736e-01 -2.23972487e+00 +1.38977528e-01 +1.41228187e+00 +4.82693434e+00 +5.58299398e+00 -1.65067089e+00 +2.73722935e+00 +4.69787121e+00 +2.40381908e+00 +6.19149971e+00 +4.32467651e+00 +1.69629776e+00 +2.19790936e-01 -1.16046524e+00 -2.46490645e+00 -3.53772116e+00 -1.19499397e+00 -1.68445981e+00 +6.16530120e-01 +3.21268320e+00 -4.80672407e+00 +6.33369160e+00 -1.42046940e+00 -9.54409778e-01 +6.47356462e+00 +2.00641036e+00 +7.16747940e-01 +4.00234318e+00 +7.75890231e-01 +6.43544912e+00 +1.99698210e+00 +2.32437611e+00 -2.22575903e+00 -1.38082206e+00 +6.45083761e+00 -9.39500272e-01 -3.16626215e+00 +3.35790062e+00 +1.11652052e+00 -8.48542303e-02 +1.79361296e+00 +5.73200035e+00 -7.15028882e-01 +4.16122913e+00 -2.62770629e+00 -4.16521931e+00 -5.02649212e+00 +3.24429274e+00 +1.75607896e+00 +4.16764593e+00 +1.33151725e-01 -7.27804184e+00 +6.14930582e+00 -5.42661953e+00 -4.01113272e+00 +5.35382128e+00 +5.29347277e+00 +3.63648868e+00 +6.62103832e-01 +7.05534577e-01 +1.58236718e+00 +4.50523317e-01 +3.39901590e+00 +3.25977707e+00 -7.10036516e+00 +8.32742786e+00 +8.15975761e+00 +3.55738187e+00 -8.11042595e+00 -1.21740460e+00 -4.01518297e+00 -2.94538029e-02 +5.18464327e+00 +5.27593553e-01 -4.24083185e+00 -9.97314453e-01 +2.81669254e+01 +2.68779159e+00 +7.37610579e+00 +2.02712011e+00 -5.28303671e+00 +7.33094454e+00 -2.82572579e+00 -3.18919587e+00 -2.01589680e+00 +3.71974969e+00 +7.76548576e+00 +7.86286545e+00 -2.51496983e+00 +9.18489552e+00 -5.70545101e+00 +1.78262508e+00 +7.85544205e+00 +3.56470013e+00 +6.81310606e+00 -6.07656050e+00 +1.18089557e+00 -2.86560923e-01 -1.57517910e+00 -1.61998824e-03 -1.78499568e+00 +6.18051720e+00 +3.22309303e+00 +3.67467904e+00 -3.67307949e+00 -4.54057741e+00 +2.66461611e+00 +1.90992045e+00 +5.70969343e+00 +4.74286109e-01 -1.60423684e+00 +7.22691488e+00 +2.57029980e-01 -1.43624897e+01 +6.69629622e+00 -5.04561853e+00 -8.22182178e+00 -4.79751408e-01 +6.15722179e+00 +3.49348855e+00 -4.14891988e-01 +4.60254192e+00 +5.21096468e+00 -4.61038542e+00 -2.36846709e+00 -5.90278530e+00 +5.51833963e+00 +1.71443498e+00 +4.24528211e-01 -4.89435244e+00 -1.41520727e+00 +2.50171185e+00 +5.34642410e+00 +4.89667606e+00 -1.46717656e+00 +3.18290639e+00 +2.40277815e+00 +3.33594561e+00 -6.03650904e+00 -3.36357737e+00 -1.79642057e+00 +2.10851836e+00 -2.85602498e+00 +1.61098468e+00 -2.35364366e+00 -9.45943642e+00 +4.50047827e+00 +8.82402802e+00 -1.72796166e+00 +5.93042803e+00 -1.41931076e+01 +7.87902880e+00 +4.38742304e+00 -4.07220125e+00 +7.60923481e+00 -2.21407151e+00 -3.62295456e+01 -7.81091356e+00 -1.09478722e+01 -4.11564970e+00 -7.12492317e-02 -9.16521549e-01 +1.60756218e+00 -3.43384981e+00 -2.97503424e+00 +1.85117877e+00 -4.30526876e+00 +5.75069380e+00 -3.70053053e+00 -5.20588219e-01 +8.37115049e-01 +4.43885088e+00 +1.35373425e+00 +1.33205616e+00 +2.84517288e+00 -5.34715796e+00 -3.53057623e+00 +2.76438880e+00 -1.40653706e+01 -3.77164006e+00 -5.41614342e+00 +1.25886326e+01 -1.33233690e+00 +4.27202082e+00 -2.01972675e+00 +2.06762862e+00 +1.65628004e+00 -1.10180891e+00 -1.19258289e+01 +3.13808322e+00 +1.33739090e+00 -1.06755934e+01 +7.12333393e+00 -1.50682390e+00 -6.95116043e+00 -3.19191980e+00 -3.07252312e+00 -6.98368025e+00 -7.04050636e+00 +5.81823051e-01 -2.72500277e+00 +6.22105694e+00 +7.64908600e+00 +2.98927832e+00 +5.74119687e-02 -3.40585709e+00 -1.11591923e+00 -7.05543423e+00 +1.31919498e+01 +7.44028986e-01 -7.15036869e+00 +1.41494441e+00 +5.45703697e+00 -3.07490945e+00 +5.39883852e+00 +1.06136449e-01 -1.35626173e+01 +9.58946037e+00 -3.65996814e+00 -6.51452541e+00 -4.51160622e+00 +3.04606843e+00 -4.08382326e-01 -6.68418884e+00 -4.11132336e+00 +2.13708949e+00 +1.03905354e+01 -7.09840655e-01 +1.78269920e+01 +7.41929293e+00 -2.89475822e+00 +4.50456333e+00 -2.91773772e+00 -9.53934574e+00 +4.24885750e+00 -1.62799084e+00 -2.40618267e+01 -1.32689571e+01 -5.12906408e+00 -2.70923138e+00 +3.82791805e+00 +1.07495213e+01 +1.53138742e+01 -2.47999048e+00 +5.46833134e+00 -1.54267168e+00 +4.28901863e+00 +1.13761139e+01 +5.42161560e+00 +4.23869967e-01 +8.31597149e-01 -6.97490788e+00 +6.62753731e-03 +5.13906956e+00 -5.59682178e+00 +1.16219711e+01 -3.33587956e+00 -4.20473051e+00 -6.65205956e+00 -5.52628517e+00 -1.03840103e+01 -5.32878923e+00 -7.66517258e+00 +8.48851919e-01 -5.34811211e+00 -7.32961130e+00 +5.87745905e+00 +2.45790100e+00 -3.02241468e+00 -6.56203794e+00 +2.12151003e+00 +1.42513590e+01 +5.55614662e+00 +5.40418577e+00 -7.77955914e+00 +1.67859864e+00 +6.43382692e+00 -8.33360672e+00 -5.85360146e+00 -1.06541901e+01 +5.87584305e+00 -5.37400305e-01 -4.55193663e+00 +1.39847050e+01 -6.35626316e+00 -3.01875854e+00 +2.36828041e+00 +2.37791038e+00 -5.11504507e+00 +2.03681970e+00 -5.49889183e+00 -4.85931724e-01 +3.50832033e+00 -7.51354158e-01 +3.51049495e+00 -4.86566401e+00 +6.30722570e+00 +1.86850786e+00 -4.45133066e+00 -3.33949375e+00 -1.81973708e+00 +1.06641567e+00 -1.86935231e-01 -1.94431758e+00 +2.10397768e+00 -1.51685238e+00 -3.86050418e-02 -1.00172126e+00 +6.50512457e+00 -1.10065355e+01 +5.25615168e+00 -4.12682676e+00 +5.71530485e+00 -3.84500718e+00 +3.57493734e+00 -1.03490138e+00 +1.34924974e+01 +4.33910459e-01 -5.97422779e-01 -3.33357787e+00 +8.98948431e-01 -4.02730227e+00 +6.38581038e+00 +2.65727687e+00 +5.96266985e+00 -3.01891041e+00 +4.88240337e+00 +2.29575300e+00 -3.70400786e-01 -1.55795693e+00 -6.24518156e+00 +4.24415493e+00 +2.54527020e+00 +3.94066393e-01 -5.35030842e-01 +1.96309245e+00 -2.53676438e+00 +8.41389358e-01 +5.13521624e+00 +5.26449490e+00 +3.46410775e+00 +2.90250492e+00 +4.20801115e+00 +7.39137697e+00 +1.52496648e+00 +5.22424889e+00 +3.61783957e+00 -2.88970780e+00 +6.96144962e+00 +3.11884046e+00 +1.84489369e+00 +3.59016061e+00 -3.73487759e+00 -2.09446716e+00 +4.44562674e+00 +5.91424751e+00 +5.63665247e+00 +1.77812743e+00 +7.79800653e+00 -6.01433706e+00 -3.37558079e+00 -2.66585946e+00 -1.52770090e+00 -8.00534725e+00 +8.41262639e-01 +4.60244799e+00 -2.07017541e+00 -1.58011556e+00 +1.46334326e+00 +4.12701130e+00 +2.58645207e-01 +5.64541292e+00 -3.18576932e+00 +7.27975941e+00 -8.62441719e-01 +1.10281181e+00 -1.18497992e+00 +2.81991214e-01 +5.50698090e+00 +8.01561773e-01 +2.71057248e+00 -1.04308996e+01 +1.54322767e+00 -1.86082232e+00 +4.01161623e+00 +4.28078502e-01 -3.00976872e+00 +3.10078204e-01 +2.39851445e-01 -6.04401350e+00 +2.65110683e+00 +2.78879476e+00 -7.34601212e+00 -5.70681620e+00 -3.35729033e-01 +4.14034748e+00 -1.25303812e+01 +9.08169651e+00 +9.29860210e+00 +3.99261451e+00 -4.65142870e+00 -9.27569485e+00 -2.00281668e+00 -2.63846684e+00 +3.55348492e+00 -2.76057792e+00 -1.93838274e+00 -1.92095757e+00 +2.24146867e+00 -8.21777344e+00 +5.00077963e+00 +9.47930396e-01 -7.07449722e+00 -1.10498071e+00 -8.82364082e+00 +3.60825300e+00 +4.53349209e+00 +3.68785930e+00 +8.85582089e-01 +2.15389800e+00 -1.84430897e+00 -2.69742584e+00 +4.23555756e+00 -3.98334622e+00 +5.32952309e+00 +6.32591188e-01 +4.66157585e-01 +1.17124781e-01 -1.33320272e+00 -2.03972149e+00 +3.49917471e-01 +4.26194715e+00 +2.38854671e+00 +5.71517134e+00 -8.55712509e+00 +1.46085131e+00 +3.28339911e+00 -3.58424520e+00 -4.79412861e-02 +4.29538679e+00 +3.00477290e+00 -6.08900309e+00 +1.05561242e-01 +1.26557274e+01 -1.89585185e+00 -1.82804275e+00 -8.75816286e-01 -2.92696071e+00 +7.34449625e+00 -2.04352913e+01 +5.18501854e+00 -1.55540264e+00 -3.61166763e+00 +1.83665439e-01 +8.33702850e+00 -4.73645496e+00 +1.04709377e+01 +1.74170268e+00 -3.44578123e+00 -5.21124458e+00 -2.15131164e+00 -1.32599637e-01 +1.80534467e-01 +8.26373756e-01 +1.61688435e+00 -4.56001520e+00 -4.99941967e-02 +1.14161861e+00 +2.86185431e+00 -1.25412359e+01 +4.62610388e+00 +9.21117723e-01 +9.61831665e+00 +6.23312092e+00 +7.09993505e+00 -8.76787949e+00 +2.31308460e+01 +2.88464546e-01 +7.01614237e+00 -8.42332721e-01 -9.28665543e+00 -1.70163524e+00 +5.97312021e+00 -2.41936946e+00 +4.22847658e-01 +1.48515778e+01 +3.24196911e+00 -1.03347623e+00 -5.35679626e+00 +9.78703403e+00 +1.04817915e+00 +8.77260208e+00 +7.76496029e+00 +4.93803024e+00 +6.95710564e+00 +4.11771297e-01 +4.23900557e+00 -8.30054092e+00 -5.09550476e+00 +2.74817896e+00 -3.28646946e+00 +1.47876754e-01 -3.99261785e+00 -4.23855096e-01 +2.31393433e+00 +8.13759136e+00 +4.22883797e+00 +1.41586661e+00 +8.01281357e+00 +9.50635052e+00 +7.01608324e+00 -2.08672905e+00 -1.76437807e+00 -1.53088617e+00 +7.19829941e+00 +2.93427539e+00 -3.29642248e+00 +3.62404275e+00 -7.83478880e+00 -9.44429111e+00 +2.41763258e+00 +4.77701807e+00 -2.04916859e+00 +2.01891828e+00 -5.89608097e+00 -2.12150993e+01 +3.50902748e+00 +1.43387365e+00 +1.68328464e-01 +2.72349381e+00 -6.85209227e+00 +4.34011364e+00 +2.30204153e+00 -1.15920734e+01 -1.63404989e+00 -2.43860698e+00 +1.23030555e+00 +3.07253766e+00 -2.61954808e+00 -1.17335997e+01 +3.58108968e-01 +5.13615942e+00 -1.43656778e+00 -1.22741449e+00 -2.12156534e+00 -1.68582611e+01 -4.57444620e+00 +2.67044449e+00 -1.97041500e+00 -7.78075123e+00 -1.54067659e+00 +8.71049309e+00 +2.27362418e+00 +1.16102934e+01 +8.19045639e+00 -8.05978298e+00 -5.71631670e+00 -1.00807419e+01 -5.87469578e+00 -3.94766474e+00 -1.57081211e+00 +1.09857588e+01 -5.62787056e+00 -1.56303616e+01 -1.91600151e+01 -1.62244189e+00 +1.46073854e+00 -6.77214050e+00 +3.64449549e+00 +8.59790325e+00 -1.17121592e+01 +1.48385906e+01 +1.30784261e+00 -1.39282680e+00 -1.04109783e+01 -4.56680250e+00 -6.02021265e+00 -1.22391539e+01 +3.62260842e+00 +1.95100737e+00 +6.64700389e-01 -7.08372355e+00 -1.10545607e+01 -5.10519314e+00 -1.84158549e-01 -1.22357845e+01 -5.23297846e-01 +5.52149391e+00 -1.43199253e+00 +1.14916094e-01 -4.22665691e+00 -8.80057621e+00 -1.95465505e+00 +5.31959248e+00 +2.85633016e+00 +3.87656379e+00 -4.92545605e+00 -6.84765720e+00 -3.32675815e+00 -2.37781811e+00 -1.00749934e+00 -3.71455979e+00 +4.31555271e+00 +1.29830074e+01 +1.86551977e-02 -2.94434607e-01 +5.69219649e-01 +1.08075180e+01 -2.88082743e+00 -1.21419506e+01 +6.27888775e+00 -9.67158139e-01 +1.40904007e+01 +8.61911297e+00 -8.63680840e-01 +4.30849218e+00 +4.44862032e+00 +4.77036238e+00 +4.21132088e+00 +1.95327306e+00 +6.52399635e+00 -5.24733639e+00 -1.15417099e+01 +9.23070371e-01 -1.18674779e+00 +1.00810270e+01 -6.35505533e+00 -1.04240732e+01 -1.41889124e+01 -8.18140984e+00 -3.37384486e+00 +6.76055104e-02 -4.56006575e+00 +5.05272388e+00 +8.71886849e-01 -1.90879703e+00 +1.09940472e+01 +1.95611501e+00 -2.09059143e+00 -1.39700413e+00 -2.13370419e+00 -2.46715829e-01 -1.94328967e-02 +3.30196357e+00 -3.23042703e+00 -9.81506443e+00 -7.28391743e+00 -6.27762222e+00 -9.55424881e+00 +2.53491235e+00 -1.95896578e+00 +1.21522591e-01 +2.80043197e+00 +9.17754364e+00 -7.31303883e+00 +8.35549450e+00 +1.10704546e+01 +4.68566084e+00 +2.89328623e+00 +1.03471117e+01 +3.99590325e+00 -1.70355129e+00 -5.67528439e+00 -5.43872833e+00 +1.16883457e+00 -8.31193551e-02 +5.63263226e+00 +4.33508015e+00 -2.80812383e+00 +6.36095667e+00 -4.08637047e+00 -3.71367335e+00 -1.71306729e+00 -1.31605160e+00 +2.17615080e+00 -1.12919319e+00 -2.38299990e+00 +6.23029470e+00 +2.60633278e+00 -1.05066748e+01 -4.67491627e+00 -6.84029198e+00 -6.58224964e+00 -2.51458621e+00 -3.64520669e+00 -1.48741274e+01 +3.17822862e+00 +9.99551868e+00 +6.65374458e-01 -3.93691152e-01 +8.63895714e-02 -1.33655655e+00 +3.52196503e+00 -4.83399582e+00 +1.51205885e+00 -2.10018969e+00 -2.94433296e-01 +1.73172307e+00 +4.82782984e+00 +5.14421558e+00 -2.63651180e+00 +2.70777512e+00 +1.82180369e+00 +1.24283254e+00 -3.47367120e+00 +7.01172876e+00 +1.79819179e+00 +3.84396172e+00 -2.31469417e+00 -9.58918476e+00 -1.50736496e-01 +5.98061991e+00 +7.44426250e-01 +5.33943939e+00 +8.24912357e+00 +3.56608891e+00 -4.19501400e+00 -2.70085025e+00 -5.03978109e+00 +3.61739612e+00 +4.13464546e+00 +9.36097908e+00 +1.69135764e-01 -5.70985699e+00 +3.61869454e+00 +8.58866096e-01 +1.48438251e+00 -1.52059376e+00 +2.26991749e+00 -3.15806210e-01 -2.62539554e+00 +5.00300550e+00 +3.16930723e+00 -7.16806602e+00 -5.49142838e-01 -2.67992759e+00 -3.65603352e+00 -5.91836929e+00 +1.59248104e+01 -4.91118002e+00 -6.61595297e+00 +6.86430037e-01 +3.90401125e+00 -9.21656311e-01 +5.22790766e+00 +2.13095164e+00 -5.84695148e+00 +1.83183599e+00 +2.92789769e+00 +1.76894808e+00 +3.21595931e+00 +2.95257568e-01 +3.27108693e+00 +4.14752722e+00 -2.80614471e+00 +2.39418411e+00 -1.26566565e+00 +6.67659092e+00 +1.93677247e+00 +3.23508167e+00 +2.00561970e-01 +1.75325418e+00 -5.82813454e+00 +2.89876771e+00 -1.73636937e+00 -9.84765530e+00 -4.13199282e+00 -4.85075998e+00 -1.23587561e+00 +2.08975716e+01 +6.00574207e+00 -8.40670681e+00 +4.80370665e+00 -2.82450724e+00 +6.43130779e+00 -8.56134510e+00 +7.08990002e+00 -1.35339117e+00 -1.16380329e+01 -4.17453194e+00 +3.32040429e+00 +1.04882002e+01 -6.02743959e+00 +1.74629498e+01 +5.84994650e+00 +2.01584935e+00 -4.67320395e+00 +6.62303734e+00 -1.21506662e+01 +4.34189856e-01 +4.56854153e+00 +6.28801680e+00 -4.13686657e+00 +4.34750080e+00 +6.00062656e+00 +2.53106952e+00 +1.52781086e+01 +6.35805750e+00 -1.34198391e+00 +1.08163512e+00 -5.04927158e-01 +3.48528194e+00 -1.90330708e+00 +3.50562096e+00 -7.88657665e+00 -1.25568449e+00 +1.59997731e-01 +5.60999107e+00 -5.46780777e+00 +4.74548674e+00 -1.62920558e+00 -1.35797668e+00 -4.02865076e+00 +1.82101002e+01 +2.29269433e+00 +6.53072071e+00 -5.29510403e+00 -3.02831501e-01 +5.48529863e+00 -4.92746067e+00 +9.87838364e+00 -1.30231867e+01 +4.89825189e-01 -4.36686277e+00 -5.94074869e+00 +3.04114580e+00 +6.19177580e+00 -5.35761547e+00 -7.81585026e+00 -3.06449270e+00 +8.62299824e+00 -9.02285576e+00 -2.71006870e+00 -2.55822778e+00 +5.64046001e+00 -3.46595955e+00 -3.06633139e+00 +5.97691631e+00 -4.30533409e-01 -2.83079600e+00 +9.54634762e+00 -8.59670925e+00 -1.00477290e+00 -4.87874317e+00 -4.88883317e-01 +2.58883983e-01 +1.55528247e+00 -3.83432001e-01 -1.02957840e+01 +6.92000484e+00 -6.62900209e+00 -5.04358578e+00 -2.80147195e+00 +4.98771238e+00 -8.11077499e+00 -4.39063644e+00 -1.00004263e+01 +2.35648680e+00 -9.55411911e+00 -9.44959545e+00 -2.23129606e+00 -5.92176199e+00 -5.91516685e+00 -1.34069605e+01 +3.05670905e+00 -8.07623386e+00 -1.29864998e+01 +7.93791962e+00 +4.98524964e-01 +1.72140193e+00 -4.50623840e-01 -8.32553196e+00 -1.03517971e+01 -6.68702507e+00 -7.29084539e+00 -9.53637314e+00 -8.07270336e+00 -1.02628632e+01 -4.17680454e+00 +2.98829985e+00 +2.38308358e+00 +3.26222086e+00 +8.16086864e+00 -2.91908693e+00 +2.42317939e+00 -1.13429403e+00 -3.73171163e+00 -1.15408659e+01 +1.19684279e+00 +1.90480471e+00 -2.81124830e-01 +2.58732140e-01 +1.84427714e+00 +1.31229448e+00 -5.20611620e+00 +1.09873072e-03 +1.01554334e+00 -3.64196515e+00 +5.89382827e-01 +3.09418464e+00 +5.41375756e-01 +3.37334776e+00 +1.11397946e+00 +2.34222412e+00 +4.78722334e+00 -4.71100283e+00 -6.76676416e+00 -1.45766032e+00 -7.11136150e+00 -1.03603971e+00 -2.63870621e+00 -2.53456283e+00 +3.17581463e+00 +5.64909458e+00 +7.49141932e+00 -4.51705456e-02 +1.04641733e+01 +8.27999473e-01 +1.78004324e+00 -2.98117369e-01 -2.53457999e+00 -5.60141611e+00 -3.18837810e+00 -2.52684057e-01 +6.87290430e+00 +5.79554796e+00 +1.28818047e+00 +3.94140214e-01 +1.13398447e+01 -3.52678800e+00 +5.03793240e+00 +4.53180265e+00 -5.72746515e+00 -1.01018295e+01 +4.42732620e+00 -1.35071290e+00 +5.24140644e+00 -1.22735333e+00 -4.82796144e+00 +3.77425027e+00 +1.93299985e+00 +1.11336737e+01 -1.79965248e+01 -1.92993939e+00 -9.90411878e-01 +5.47072077e+00 +1.57676954e-02 +3.85599470e+00 -5.81287193e+00 -1.64342791e-01 -1.23278105e+00 -3.44532704e+00 +3.07434052e-01 -9.63490772e+00 -2.05300579e+01 +2.40159392e+00 +3.17696857e+00 -1.43926353e+01 +9.22625065e+00 -4.07178783e+00 +3.39046574e+00 -1.90624386e-01 -4.03354025e+00 +3.86962032e+00 +2.43895516e-01 +1.06327844e+00 +5.99311113e+00 -6.66956723e-01 -5.76764774e+00 +8.25273609e+00 -2.51746893e+00 +8.24299526e+00 +4.00127649e+00 -4.50936890e+00 +1.04106463e-01 +1.61605251e+00 +5.71532679e+00 -1.37970626e+00 -8.51456165e+00 +6.40263319e+00 -4.81412506e+00 -1.55220643e-01 -8.04341984e+00 +4.23465395e+00 -7.69112968e+00 -6.20710754e+00 +1.72385573e+00 +3.29887033e-01 -8.72312927e+00 -1.12577188e+00 -2.03730631e+00 -1.47423589e+00 -8.48093319e+00 +4.24190521e-01 +1.19787589e-01 -1.04110301e+00 +2.07373619e+00 +1.47325993e+00 +1.99956632e+00 +2.96659660e+00 +3.14723396e+00 +3.49601674e+00 -1.00526199e+01 +1.07973242e+01 +9.57215965e-01 +7.03882551e+00 -3.75036263e+00 +2.70743704e+00 +6.61160040e+00 +3.90438223e+00 -1.11003065e+00 -9.07486343e+00 +1.63519776e+00 +4.29949903e+00 -2.20043898e+00 -3.57241422e-01 +4.14708376e+00 +1.67503881e+00 +4.92011452e+00 -5.99748135e+00 -9.45855856e-01 -3.83803582e+00 +3.40270329e+00 +3.97745538e+00 +8.00681877e+00 +5.91280699e+00 -1.12984669e+00 -1.24028616e+01 -4.42369652e+00 -7.45413899e-01 +2.69222665e+00 +5.82402277e+00 -5.02241802e+00 +1.43501639e+00 +2.99932599e-01 +1.00828862e+00 +1.54980116e+01 +6.92123652e-01 -1.67309880e+00 +1.37100601e+01 +4.48294783e+00 +5.78222036e+00 +4.89916134e+00 +9.94934177e+00 +2.00139961e+01 -1.04014072e+01 -2.62109184e+00 -1.51365864e+00 -3.07933712e+00 +1.78358030e+00 +5.69246483e+00 -2.00973606e+00 +4.11360407e+00 +2.38182998e+00 -2.95318007e+00 +6.53834343e+00 -1.91814017e+00 +4.69481230e+00 +1.10207262e+01 +5.41570902e+00 +8.28504753e+00 +1.48308980e+00 +2.58625937e+00 +1.00645561e+01 +1.24768887e+01 +9.87352073e-01 +6.03378010e+00 -1.43185501e+01 -1.43510282e+00 +1.36476588e+00 -9.00975406e-01 +1.61244273e+00 -1.37385149e+01 +3.55909079e-01 +4.76361322e+00 +1.02466612e+01 +7.63352728e+00 +1.06161146e+01 +5.96514606e+00 -7.16479492e+00 -5.49167204e+00 -5.57830524e+00 -1.09373884e+01 
#Parameter# /vanilla-lstm-builder/_4 {80,20} 25601 ZERO_GRAD
+1.14290185e-01 +7.18464136e+00 -4.88141680e+00 +6.91674900e+00 -2.21243635e-01 -1.41568625e+00 -7.22059250e+00 -4.45540380e+00 +4.73296404e+00 +7.99201727e+00 -3.73390961e+00 -9.05908966e+00 +1.62721336e+00 +6.74414206e+00 +9.30749893e+00 +8.72426510e-01 +7.38933945e+00 -5.78129053e+00 -4.97790527e+00 +1.54759812e+00 +1.56916514e-01 -3.72688365e+00 +1.00716901e+00 -8.11922455e+00 +2.95875162e-01 -2.62260556e+00 -9.05189419e+00 +5.99267387e+00 +2.58795094e+00 -2.07111573e+00 -3.55655879e-01 -7.14680851e-01 -8.88214302e+00 +3.75055466e+01 +1.48493183e+00 +1.02178040e+01 -7.61491680e+00 +1.00014400e+01 -3.06012893e+00 -1.54764819e+00 -8.41476861e-03 +1.38249743e+00 -2.55573654e+00 -6.54107332e+00 +4.42931938e+00 -7.47024965e+00 +1.17159500e+01 +2.98168302e-01 -2.60488415e+00 +1.12357140e+01 +9.83952141e+00 -7.89952993e-01 +1.08756363e+00 +3.73627520e+00 +7.53612614e+00 -1.41980004e+00 -1.01213425e-01 +7.30937576e+00 +5.30087352e-01 +1.26882410e+00 -3.71489167e+00 +6.14940262e+00 -4.92543888e+00 +1.17403090e+00 -2.90749240e+00 +7.31456137e+00 -1.92045689e+00 -3.88519001e+00 -4.97608089e+00 -5.84802055e+00 -5.07063723e+00 +7.23080635e+00 +3.39605117e+00 -3.20397258e+00 +5.55602455e+00 +7.17707729e+00 -2.16294193e+00 +4.19282341e+00 +4.11407679e-01 -2.09487557e+00 +7.04787731e+00 +2.12365174e+00 -2.35119369e-02 -2.71196437e+00 +3.75589919e+00 -5.14479256e+00 +2.82365173e-01 +7.88884103e-01 +1.14274502e+00 +1.94041097e+00 -6.23578835e+00 +3.79079151e+00 +2.91767526e+00 +5.18902838e-01 +7.35098648e+00 -9.82698575e-02 -2.16188765e+00 +1.29486589e+01 +1.83578098e+00 +1.33945966e+00 +7.92036200e+00 +2.65498090e+00 -6.78921032e+00 -2.20627093e+00 -1.35703831e+01 +5.78581154e-01 +3.19544166e-01 +2.48687267e+00 +2.55602419e-01 -4.77270365e+00 -3.74452090e+00 -4.63987827e+00 +1.03335714e+00 +2.11417503e+01 +4.11352491e+00 -6.06262159e+00 -2.35689640e+00 -4.00027514e+00 -2.98313051e-01 +6.36133075e-01 +8.94417191e+00 -1.42268729e+00 -4.69694471e+00 -2.65965009e+00 +4.36811256e+00 -4.86355209e+00 -2.15810299e+00 +3.73794079e+00 +5.29116678e+00 -2.13068509e+00 +5.46477413e+00 -5.00395012e+00 -3.24067760e+00 +3.22563601e+00 +2.29568100e+00 +5.55833530e+00 +2.60539389e+00 +4.99462032e+00 +1.25219953e+00 +4.69836855e+00 -4.22717237e+00 -5.30215502e+00 -5.11265576e-01 -1.51088476e-01 -2.11151195e+00 +1.28427434e+00 +7.15365529e-01 +4.76375866e+00 -4.33722830e+00 +3.79897326e-01 -4.10783082e-01 +5.08156538e+00 +3.35333729e+00 -1.82899129e+00 -1.21221983e+00 +6.99012566e+00 -1.90098777e-01 -2.77099729e+00 +2.63586664e+00 +6.08455651e-02 -2.92815417e-01 +4.24203348e+00 +1.17779589e+00 +5.27961445e+00 +9.33777428e+00 -2.17758918e+00 -5.27764511e+00 +3.14961672e+00 -1.70644283e+01 -1.30882347e+00 +1.34579694e+00 -3.78781176e+00 +6.97833490e+00 +5.45174885e+00 -1.57451067e+01 -7.00818777e-01 +4.92191029e+00 +3.78231764e-01 -1.38794546e+01 +5.11621332e+00 -4.08953428e+00 -8.53016317e-01 +3.89658356e+00 +5.29218817e+00 -7.69349194e+00 -9.53626871e-01 +3.93147349e+00 +2.27192974e+00 -6.41513634e+00 -8.45484543e+00 +1.01587849e+01 +3.18645716e-01 +4.33333844e-01 -1.67177887e+01 +4.91252691e-01 +3.18659449e+00 +8.23059082e+00 +4.20671558e+00 -8.44633818e-01 +1.31210721e+00 +1.87635648e+00 +1.15107851e+01 -4.89088488e+00 +4.89066267e+00 -7.09932327e+00 +5.83695936e+00 -3.79998493e+00 +6.05411196e+00 -5.54930353e+00 -4.51133579e-01 +4.76271582e+00 +1.12997742e+01 +1.19936071e-01 +6.29609919e+00 -3.46971297e+00 +1.17584200e+01 +1.83518660e+00 +5.94330847e-01 -4.46919489e+00 +5.03541708e+00 +9.10496807e+00 -1.49812520e+00 +9.71234035e+00 -4.73808479e+00 -4.95297480e+00 -4.09181356e+00 -1.02673995e+00 +4.46491432e+00 -7.22866154e+00 -2.17645979e+00 -7.97261620e+00 +4.26476908e+00 +3.29068638e-02 +5.50899506e+00 +4.29153681e+00 -1.27840906e-01 +6.49953651e+00 +5.35540402e-01 -1.41008866e+00 -2.10246277e+00 -3.01267409e+00 +6.96367836e+00 +1.99163377e+00 -2.53868198e+00 -3.43936276e+00 -6.85885382e+00 +4.73889560e-01 -3.45387244e+00 -5.43049932e-01 -2.05118728e+00 +2.51441908e+00 +6.31495047e+00 +2.85999560e+00 -8.47283936e+00 +6.47711515e-01 +8.02739716e+00 -1.92579615e+00 +2.63793039e+00 +4.16925144e+00 -1.17635751e+00 +8.62534428e+00 -5.74588299e-01 +1.54598379e+00 -7.16648698e-01 -1.85604894e+00 +2.79343605e+00 -1.98004222e+00 -8.58805180e+00 -5.10235548e-01 -2.49557996e+00 -1.52734411e+00 -2.20230460e+00 -1.88210714e+00 +1.32345724e+01 +4.32981300e+00 +5.00589180e+00 +1.96194065e+00 -3.97379041e+00 +8.34574848e-02 +4.13998938e+00 -7.99221873e-01 -4.99068213e+00 +2.51518822e+00 +2.26271898e-02 +1.43692762e-01 +4.03825879e-01 -8.82310867e-01 +1.33576608e+00 +8.67962122e-01 -4.00759172e+00 +3.94320059e+00 -3.43957448e+00 -2.83819127e+00 +4.94605875e+00 -2.65525413e+00 +3.11924905e-01 +8.79006386e+00 -7.85170078e-01 +3.20102000e+00 -6.62068224e+00 -7.67165571e-02 -1.02909946e+00 +2.89060378e+00 +7.12518871e-01 +5.25638866e+00 -3.52415848e+00 +4.45739841e+00 -7.67552471e+00 +1.93320024e+00 +4.51793289e+00 +8.70101643e+00 +1.14715981e+00 -1.14233553e+00 -6.58391118e-01 -4.16913807e-01 -6.02925348e+00 -1.30507696e+00 +3.94892216e+00 +4.56340504e+00 +3.68680263e+00 -6.95590258e+00 -7.93397045e+00 +8.21872354e-01 +1.79221475e+00 -7.37334967e+00 +1.35395026e+00 +9.07805383e-01 +9.51769924e+00 +6.05679512e+00 -3.29022098e+00 -9.29794502e+00 +4.89807272e+00 -5.20338774e+00 +4.51864958e+00 +5.30468416e+00 +1.88576627e+00 -1.26932275e+00 -6.52869272e+00 +1.18713915e+00 +7.63762414e-01 +1.41315520e+00 -3.46899796e+00 +2.61918545e+00 +9.39048588e-01 -7.74819374e+00 -1.80836773e+00 +5.84593105e+00 +8.37174702e+00 +1.88672662e+00 -4.54727697e+00 -4.31278038e+00 +2.36033887e-01 +6.21527815e+00 -2.04116039e+01 -3.73819160e+00 -4.37676525e+00 +4.68042088e+00 +2.05088925e+00 -5.72346783e+00 +1.39831734e+00 -1.79815030e+00 -5.66821432e+00 +5.58069646e-01 +4.32601786e+00 -4.53020477e+00 +1.39244938e+00 -2.08094263e+00 +1.56376398e+00 +4.38130140e+00 +1.19158864e+00 -6.20798779e+00 +6.12995100e+00 -1.63541734e+00 +3.53959417e+00 -3.94821954e+00 -2.22640252e+00 +8.83671474e+00 -1.69133151e+00 -2.57492280e+00 +7.95723915e-01 +6.12452126e+00 -7.85586882e+00 -3.44367933e+00 +6.54202843e+00 -6.30492592e+00 -2.85597920e-01 +4.73777390e+00 -2.63273048e+00 -5.04039001e+00 -8.50933373e-01 +6.46354485e+00 -1.25661898e+00 -1.64493167e+00 +1.16189277e+00 -6.95444775e+00 -2.37037444e+00 -8.04312229e+00 +6.42966938e+00 -5.14021993e-01 -1.35383093e+00 +3.83839893e+00 +9.01916802e-01 +2.46053362e+00 -7.69989157e+00 -5.59029484e+00 -8.11004448e+00 +5.06002522e+00 +5.46569586e+00 -1.48413670e+00 +9.12385082e+00 +7.48167133e+00 +1.21808350e+00 +3.65092134e+00 -2.55410624e+00 +1.67157316e+00 +7.35150385e+00 +3.19290090e+00 +5.97492743e+00 -3.06421590e+00 +1.29171324e+00 -9.54137862e-01 +2.99144912e+00 -2.17222238e+00 +1.14352102e+01 -2.35359383e+00 +6.74217224e+00 +1.10685870e-01 -5.65134859e+00 -8.15231323e+00 -2.10820246e+00 +8.71767235e+00 -7.14059830e+00 -2.27502799e+00 +4.79015303e+00 -1.18620670e+00 +1.67550969e+00 -5.40711641e+00 -1.70734215e+01 -2.62411475e-01 +8.73943031e-01 +7.06750250e+00 +2.72636199e+00 -8.26235199e+00 -9.34446275e-01 +9.30190849e+00 -5.40738404e-01 +3.98567295e+00 +4.21651030e+00 -3.35463762e+00 -8.61734676e+00 -4.18505669e+00 +1.57271981e+00 +7.77525663e+00 +9.22805882e+00 -9.69947636e-01 +1.16461744e+01 -4.07953215e+00 +4.65263700e+00 -2.00626659e+00 -9.67332458e+00 +1.66397929e+00 +5.19703627e+00 +1.88560152e+00 -3.20497537e+00 -7.49134779e-01 -1.84462821e+00 +6.06106567e+00 -2.71713924e+00 -4.69608337e-01 -3.82757258e+00 -3.45651340e+00 +5.36606836e+00 +3.00377822e+00 -8.44602299e+00 +4.55475998e+00 +2.68415213e-01 -7.02212286e+00 -2.16738987e+00 +5.85076237e+00 +1.71820128e+00 -1.07997143e+00 -6.22315073e+00 -7.27043331e-01 -1.80477977e+00 +3.88895488e+00 -5.89433670e+00 +2.63566756e+00 -4.54320490e-01 -2.92224312e+00 -5.00975275e+00 +9.62167931e+00 +3.20493197e+00 +4.71071386e+00 -7.20147371e+00 +1.11891279e+01 +5.77902853e-01 +2.30858430e-01 +4.01294947e+00 +2.16973588e-01 +3.29764456e-01 +6.96286440e+00 -2.81146431e+00 +3.23419237e+00 -5.22415876e+00 +7.32600808e-01 -4.35778141e+00 -3.70569682e+00 +8.21372128e+00 -5.52468729e+00 -2.92832899e+00 +5.91243362e+00 +3.73020482e+00 -6.17881775e+00 +1.81176167e+01 +2.58892775e+00 -2.99612355e+00 -4.07720184e+00 +9.45614910e+00 -2.29538465e+00 +1.02813082e+01 +3.44423819e+00 +1.64357638e+00 -3.15724564e+00 -1.38103783e+00 +3.53281903e+00 +1.86928868e+00 -5.38107109e+00 -3.68231916e+00 -4.54696417e-01 +1.37441647e+00 +1.94949875e+01 -4.63710070e+00 +1.86678207e+00 +1.41421461e+00 +4.47761345e+00 -1.33486938e+00 -8.74757671e+00 -3.43075705e+00 +4.55940294e+00 +9.41711783e-01 +1.27378607e+00 -2.24476552e+00 +1.16664875e+00 -2.57122850e+00 -3.64076519e+00 -3.29695392e+00 -2.21906376e+00 -7.41828775e+00 -3.54206133e+00 -3.90347719e+00 -1.26193535e+00 -5.90669632e+00 +5.61247969e+00 -1.74862671e+00 +7.71707892e-01 -2.09386802e+00 -4.43315220e+00 -2.54803896e+00 -4.70926857e+00 -4.84662914e+00 -4.70331764e+00 -7.22861707e-01 +2.97443533e+00 +3.99927473e+00 +3.27965689e+00 +1.09990644e+00 -7.38843918e+00 +3.15706778e+00 -5.04778957e+00 -1.57669449e+00 -1.23980398e+01 -4.28823948e-01 +9.51819181e-01 +1.52788992e+01 +2.48403215e+00 -6.00887835e-01 -7.69537973e+00 -2.50911027e-01 -2.10279751e+00 +8.00363064e-01 -1.12021103e+01 -9.37981796e+00 +1.15799503e+01 -1.24013758e+00 -2.97859454e+00 +1.17821217e+01 +4.10075903e+00 +6.84259701e+00 -1.64753854e+00 +6.77589655e+00 +5.22171307e+00 +3.14714384e+00 -2.12223500e-01 +4.72290468e+00 +3.01616192e+00 +1.77516162e+00 -1.49592113e+00 -4.08332109e+00 +1.22924061e+01 +3.72216702e+00 -5.13243675e+00 +1.32445407e+00 -1.04783678e+00 +9.85900021e+00 +5.88607407e+00 +1.00144005e+01 -4.62450647e+00 +2.23883343e+00 +1.40487218e+00 +2.81348658e+00 +1.35185027e+00 +3.26398516e+00 -1.85426044e+00 +4.19548941e+00 +8.23925304e+00 +3.51860738e+00 -1.98417425e+00 +1.49410403e+00 -2.96698356e+00 +3.46088767e+00 -9.02137339e-01 -6.91833878e+00 +4.37254763e+00 -3.29407310e+00 +4.32238626e+00 +4.06188869e+00 -6.09961808e-01 -5.23037195e-01 -1.88806665e+00 -6.17535257e+00 -2.01023912e+00 +3.05665612e+00 -3.54743934e+00 +6.58213997e+00 +8.88077641e+00 +5.27903891e+00 -1.03753221e+00 +3.66173291e+00 +4.92297840e+00 +4.29827303e-01 +1.35234890e+01 -1.24306643e+00 +1.48739243e+00 -2.47704387e+00 +4.72458172e+00 +1.01006532e+00 +1.08275437e+00 -5.37485027e+00 +2.68275619e+00 -2.01161027e+00 +3.98052883e+00 +4.44432497e+00 -2.00073338e+00 +1.52700186e+00 +7.55019903e+00 +5.19751215e+00 -4.62964725e+00 +4.32166243e+00 +1.88543999e+00 +1.67818773e+00 -1.92800248e+00 -8.59801292e+00 -1.22045603e+01 -3.82376695e+00 -5.43229532e+00 -2.82683110e+00 +7.58155465e-01 +4.65501356e+00 +1.30074179e+00 -9.48246861e+00 -1.66565448e-01 +2.57158065e+00 +1.20285857e+00 +1.86367378e+01 -3.72928572e+00 -3.81265831e+00 -9.80635548e+00 -2.90826464e+00 +6.72256279e+00 +8.79671192e+00 +5.73192263e+00 +5.08321428e+00 -4.31398392e-01 -9.55500317e+00 +3.45011115e+00 +4.90049744e+00 -1.86107886e+00 -2.28487208e-01 +3.20326781e+00 +9.16726685e+00 +9.98943746e-01 -5.14879084e+00 -5.40889931e+00 +3.61501789e+00 +1.20084114e+01 +2.65822554e+00 -7.49878788e+00 -4.61670065e+00 -6.06801653e+00 +3.51885819e+00 -4.41572618e+00 +1.79982042e+00 -1.73058915e+00 -3.50067288e-01 -1.99666917e+00 +1.96274197e+00 +1.21477308e+01 +4.01378679e+00 +7.73815203e+00 +3.28876591e+00 -4.44166422e+00 +7.20018506e-01 -7.32510233e+00 -5.90453768e+00 -1.87786877e+00 -6.96998835e-01 -9.03077030e+00 -8.56168079e+00 -7.57064996e-03 -4.47986841e+00 -7.76315403e+00 +5.27711010e+00 -2.50074804e-01 -4.65180969e+00 -3.66634059e+00 +1.79038930e+00 -1.80460370e+00 +6.18349016e-01 -9.49736357e-01 -5.35371125e-01 +1.15800989e+00 -1.35466361e+00 -6.25009108e+00 +2.24553776e+00 +4.06561756e+00 -5.31742096e+00 +5.04324675e-01 -1.19136703e+00 +1.46360958e+00 -2.26887321e+00 -2.74030566e+00 +2.31375837e+00 +2.44404006e+00 -3.90731668e+00 +1.56290913e+00 -1.71495616e+00 +9.27631569e+00 -5.98164845e+00 +5.29455042e+00 -4.50628614e+00 +8.68919849e+00 +1.49681115e+00 +1.07838690e+00 -2.42620602e+01 +7.00693846e+00 +5.82815456e+00 -4.55676526e-01 -2.91503835e+00 -6.78547287e+00 -7.22875690e+00 +3.52885413e+00 -2.44135946e-01 +7.59845686e+00 -1.92890739e+00 +5.73385835e-01 -6.50343180e+00 -1.31175938e+01 -6.75688803e-01 +1.40319419e+00 -1.88493216e+00 -1.54626966e+00 -6.93473911e+00 -4.93928075e-01 +9.82913375e-01 -5.92021751e+00 -1.41426873e+00 +3.80994606e+00 +3.88040334e-01 -2.26744676e+00 -4.62729168e+00 +3.24670315e+00 +4.82624799e-01 -1.08550382e+00 +9.46596324e-01 +2.88117933e+00 +1.01822042e+00 -3.79023337e+00 -1.42285080e+01 -1.28200197e+00 -2.82175422e+00 +2.26352811e-01 -4.34401464e+00 -1.54653585e+00 -3.50411105e+00 -6.72825670e+00 -2.25930452e+00 +6.13325834e+00 +3.41293836e+00 -6.35354662e+00 +3.75245791e-03 -1.02164078e+01 +5.84844112e-01 +4.61370420e+00 -3.01816559e+00 +6.44590139e-01 -1.11393571e+00 +4.70824480e+00 +1.95324969e+00 +1.05720401e+00 -7.67668784e-01 +4.54492903e+00 +1.19657385e+00 +2.16077900e+00 -1.19966125e+01 -1.12831104e+00 +1.46974826e+00 +4.19698858e+00 -1.14750004e+01 -1.05406294e+01 -1.11129456e+01 +1.91000247e+00 +1.07685602e+00 +4.70495033e+00 -2.36579370e+00 +1.34045382e+01 +1.07889893e-02 -1.61839175e+00 +9.83524704e+00 +3.97996569e+00 -1.20319009e+00 -2.87670636e+00 -1.68870306e+00 +2.25151539e+00 -2.22568321e+01 -8.21272278e+00 -2.94076920e+00 -2.02608776e+00 -5.23644114e+00 -9.67644215e+00 +9.14523602e+00 -2.69499898e+00 +6.01875162e+00 +3.66176105e+00 +6.10020781e+00 +5.20540333e+00 +1.44819939e+00 -2.09777641e+00 -4.44457293e+00 -2.21788168e+00 +7.58175468e+00 -7.61398458e+00 +7.45546579e+00 +8.65429497e+00 -5.76362085e+00 -8.78983402e+00 -1.14826536e+00 +6.20164776e+00 -1.23180389e+01 -5.64955091e+00 +4.48362684e+00 -2.22617221e+00 -3.72535872e+00 -4.75544357e+00 -2.03295588e-01 +2.74598598e+00 -1.33684034e+01 +1.61823630e+00 +2.61327744e+00 +3.51728737e-01 +6.97463322e+00 +7.05301619e+00 -1.08502302e+01 -6.00853014e+00 +1.11956415e+01 -7.68118858e+00 -8.61780643e+00 -2.59992218e+00 +8.94057846e+00 -4.57156229e+00 -3.54730749e+00 +1.05502424e+01 +8.09441376e+00 -2.50711608e+00 +5.12610960e+00 +1.11492348e+01 -5.84250927e-01 +3.50199556e+00 -1.24885836e+01 -5.55365562e+00 -2.74121594e+00 -5.76646948e+00 -2.54723096e+00 +4.13584614e+00 +9.23481464e+00 -1.04146452e+01 +4.47335035e-01 -6.36659670e+00 -2.31217742e+00 +2.78436279e+00 -7.24312186e-01 -8.89929676e+00 -9.53250408e+00 +1.42873180e+00 +1.85034752e+00 +5.40126753e+00 +7.02165794e+00 -7.63832903e+00 -5.69310760e+00 +8.34360778e-01 +5.72212124e+00 +5.94881678e+00 +1.61612153e+00 -1.16111031e+01 +2.95659885e+01 -3.38409591e+00 +8.32075596e+00 +2.13027596e+00 +6.81101704e+00 -3.80113411e+00 +3.35201263e+00 -2.76907587e+00 -7.59415030e-01 +7.93846250e-01 +4.16357756e+00 -5.21123886e-01 +2.64866424e+00 +4.37851572e+00 +5.76741040e-01 -9.36409473e-01 +3.17148066e+00 +5.23565197e+00 +5.00372601e+00 +1.09419382e+00 -1.28676820e+00 -1.09586630e+01 +4.57981157e+00 +3.24687123e+00 +5.28232098e+00 -3.12839061e-01 -5.63349533e+00 +4.00527000e+00 -6.82902813e+00 +2.08119464e+00 -4.24423122e+00 +1.61629736e+00 +1.07282171e+01 -1.69832063e+00 -6.48768187e-01 -4.84524965e+00 +2.44718885e+00 -8.94964409e+00 -1.38166344e+00 +3.30109167e+00 -9.41444397e+00 +6.16752577e+00 +1.58608866e+00 -2.19317150e+00 -1.64986444e+00 +8.04468155e+00 +4.38353729e+00 +7.90121937e+00 +2.57618189e-01 +3.95132113e+00 -2.83296674e-01 +1.89517379e+00 +4.53642082e+00 -5.10375071e+00 +7.22749615e+00 -1.54058635e+00 +5.48305082e+00 -1.59664202e+00 +4.63119078e+00 +4.20968914e+00 -2.07450581e+00 -7.13338852e+00 +2.39527798e+00 -5.56409121e-01 +1.43265176e+00 +3.76000237e+00 +9.92128551e-01 +1.40590990e+00 +8.73609734e+00 -4.59947872e+00 -9.69391093e-02 -9.11928368e+00 -4.77702200e-01 -3.82762343e-01 -4.82780266e+00 +1.50487006e+00 +3.82666063e+00 -2.17117548e+00 +2.05509615e+00 +2.89824343e+00 +1.33267908e+01 -1.08090734e+01 +8.03661919e+00 +2.15231851e-01 +6.03900492e-01 -3.46706390e-01 -6.53783739e-01 +7.11942148e+00 +8.11868382e+00 -7.28287840e+00 +2.32676601e+00 -1.37954414e+00 +1.09516609e+00 -9.79246140e-01 +2.05662823e+00 +1.07973595e+01 +7.46122026e+00 +8.28158855e+00 -1.36403358e+00 +9.04878044e+00 +4.90146494e+00 +1.10375261e+01 +3.73639464e+00 +2.20781541e+00 -3.43378377e+00 -3.21903557e-01 +2.38946748e+00 +4.02806282e+00 +7.22546673e+00 -3.45883250e+00 +7.02574396e+00 -2.99294114e+00 +6.03550673e+00 +9.96241122e-02 +2.48485112e+00 +5.67085218e+00 -9.34130013e-01 -9.57343960e+00 -4.03681421e+00 +1.80032527e+00 -8.98880672e+00 -5.53370571e+00 -2.77798438e+00 +7.70467615e+00 -5.08948278e+00 +8.72670174e+00 -3.28290534e+00 -8.25511265e+00 -4.24220467e+00 +3.19724989e+00 +1.47096748e+01 -1.06053495e+00 +7.31799364e-01 -3.19312739e+00 -1.14588909e+01 +4.62964869e+00 +1.20291271e+01 -1.66631877e+00 -2.46050334e+00 +5.50294304e+00 -1.19797668e+01 -5.85932159e+00 -1.65624094e+00 +2.33837700e+01 -1.00516348e+01 -3.74456048e+00 -2.82228971e+00 -3.00813985e+00 -1.83972013e+00 +2.08545446e+00 -1.07071428e+01 +1.11437531e+01 -1.61333993e-01 -4.67927504e+00 +4.84593153e+00 -8.86560082e-01 -1.82420444e+00 -1.11074102e+00 -7.84053564e+00 -2.25011706e+00 -3.77760162e+01 -6.58533752e-01 +3.02631164e+00 +5.69347620e+00 +6.52635479e+00 +1.02975166e+00 -1.35991204e+00 +1.27452946e+00 -8.39543056e+00 +4.82214165e+00 -4.39822972e-01 +6.52909422e+00 -8.74199200e+00 +1.36586463e+00 +4.39266253e+00 -9.44926643e+00 +3.00304580e+00 -6.91103983e+00 -4.03861141e+00 +1.15236437e+00 -4.68257856e+00 -4.16533613e+00 -4.81184673e+00 -1.09477806e+01 -5.35211229e+00 -1.70602715e+00 -1.87459660e+00 +6.64516389e-01 +8.66974831e+00 +2.35604532e-02 +5.04569864e+00 -1.89341867e+00 -1.42026141e-01 -1.27167225e+01 +8.73597920e-01 +2.88043708e-01 +2.76982099e-01 +5.84433031e+00 +2.48991203e+00 -2.08760190e+00 +4.33707333e+00 +2.03327775e+00 -4.11856413e+00 +5.74380779e+00 +5.26717997e+00 -2.76161623e+00 -2.42644235e-01 +5.05333424e+00 -3.50110865e+00 -5.27231455e+00 -4.22233522e-01 -5.21478474e-01 -2.49709821e+00 +3.29735875e-01 -6.16395330e+00 -1.61589503e+00 +5.57320404e+00 -1.81402159e+00 -7.83448553e+00 +1.85714555e+00 +6.53750658e+00 -4.43734258e-01 -1.58396089e+00 +2.01950863e-01 +5.17027903e+00 +5.22198057e+00 -6.11224222e+00 -3.08861756e+00 +2.39460850e+01 +1.30411291e+01 -4.02404785e+00 -3.96488571e+00 +1.94690394e+00 +4.98541307e+00 -3.06689119e+00 +3.73712230e+00 -1.28417468e+00 -4.90779877e+00 -5.47687960e+00 +5.03940761e-01 +2.49334641e+01 -2.69345284e+00 +7.18711376e+00 +2.64503813e+00 +9.01389122e+00 +4.54126596e+00 -1.44394517e+00 +2.52495909e+00 +1.29150844e+00 +3.99332333e+00 -2.47653976e-01 +1.80372012e+00 -1.33523881e+00 -1.12217789e+01 -1.19017196e+00 -1.07413187e+01 -3.36868435e-01 +3.96801996e+00 -7.52951956e+00 +2.51736760e+00 +2.71680021e+00 +3.30278969e+00 -9.68527645e-02 +3.79208517e+00 -9.53147531e-01 -5.68317354e-01 +7.23810005e+00 +6.88336802e+00 +4.39639997e+00 +4.45030451e+00 -9.54784989e-01 -6.88364315e+00 +1.35967541e+00 +3.29786992e+00 -2.03028440e+00 -1.11187325e+01 +8.63340569e+00 -2.44814777e+00 +3.31008315e+00 -3.52338624e+00 -2.50540566e+00 -5.51951456e+00 -1.73808113e-01 +2.18088579e+00 -3.84187269e+00 +1.40703011e+01 -3.67163706e+00 +4.51715088e+00 +1.98977089e+00 +2.62623817e-01 +6.86101532e+00 -4.78842306e+00 +9.92120504e-01 +3.28253388e+00 +6.67307317e-01 -1.18461514e+00 +8.68201637e+00 +6.33240175e+00 +8.32701492e+00 -4.78400898e+00 +7.54961443e+00 +2.14042854e+00 -3.87739849e+00 -2.49063158e+00 +6.81213331e+00 -1.90648592e+00 -3.33213449e+00 +8.06001663e+00 +4.98284912e+00 +3.44302249e+00 +5.73598814e+00 -5.15484571e-01 -3.75953698e+00 -6.37520218e+00 -1.85031581e+00 -1.15180969e+01 -8.16311836e-01 +3.99262595e+00 +1.16841488e-01 -5.83532286e+00 +2.36605396e+01 +4.35860008e-01 -5.89657640e+00 +5.17024899e+00 -1.11956787e+00 -1.71978486e+00 +8.04519081e+00 +6.09952390e-01 +5.21296787e+00 +3.99478197e+00 -2.43203974e+00 +1.61473358e+00 +5.22823811e+00 +3.18468881e+00 +1.75851154e+00 +6.47350192e-01 -3.08494449e+00 +2.73926520e+00 +6.02798510e+00 -4.22098219e-01 +2.78743815e+00 +3.00601125e+00 +2.10464406e+00 +5.46961260e+00 +3.80482340e+00 +3.98992753e+00 -2.84794950e+00 +2.28327894e+00 +8.60991478e+00 +8.87435150e+00 +2.67177367e+00 -4.90802415e-02 -3.07203722e+00 +4.49443913e+00 -4.60943651e+00 -5.11341715e+00 -7.40653086e+00 +2.32500672e+00 +6.20727825e+00 +3.22672057e+00 +2.81379366e+00 +4.85056067e+00 -3.62108088e+00 +1.13059524e-02 +1.03786238e-01 +4.23770636e-01 -2.45132089e+00 -5.86895800e+00 +9.85192490e+00 -8.17000210e-01 +1.05385530e+00 +3.73982239e+00 +2.16252536e-01 -5.31766748e+00 +2.34017897e+00 +3.78317904e+00 +6.14813900e+00 +2.49222326e+00 +3.95983362e+00 -4.49084091e+00 +2.32509089e+00 +5.66929698e-01 +2.82170272e+00 -1.22273579e+01 +6.09045362e+00 +1.89363575e+01 -3.20413923e+00 -5.90894079e+00 +8.55774403e+00 +3.34213924e+00 -2.18897343e+00 +1.94228125e+00 +5.11046743e+00 -3.30216575e+00 -1.02072918e+00 +2.39259911e+00 +4.47493267e+00 +7.72906160e+00 +3.62359428e+00 -8.47259903e+00 +1.80625305e+01 +1.26761043e+00 +2.27417636e+00 -3.43847728e+00 -1.13100350e+00 +2.83510041e+00 -3.33401513e+00 -2.25423050e+00 -4.91972733e+00 -3.11009258e-01 +3.68692875e+00 +1.22181654e+00 -7.62311146e-02 -3.88974285e+00 +7.84645462e+00 +1.90998864e+00 +4.96775436e+00 +1.72687900e+00 -2.23789409e-01 -4.91502881e-01 +3.82445246e-01 -2.43641877e+00 +1.52497435e+00 +2.15921760e+00 +5.01845217e+00 +4.14654398e+00 +3.29643631e+00 +8.21175098e-01 -3.19493604e+00 +3.35245156e+00 -4.71438503e+00 +3.92550755e+00 -9.32724357e-01 -2.07489967e+00 +1.29272413e+00 +1.02485094e+01 -8.04867566e-01 